/* Generated by Edge Impulse
*
* Permission is hereby granted, free of charge, to any person obtaining a copy
* of this software and associated documentation files (the "Software"), to deal
* in the Software without restriction, including without limitation the rights
* to use, copy, modify, merge, publish, distribute, sublicense, and/or sell
* copies of the Software, and to permit persons to whom the Software is
* furnished to do so, subject to the following conditions:
*
* The above copyright notice and this permission notice shall be included in
* all copies or substantial portions of the Software.
*
* THE SOFTWARE IS PROVIDED "AS IS", WITHOUT WARRANTY OF ANY KIND, EXPRESS OR
* IMPLIED, INCLUDING BUT NOT LIMITED TO THE WARRANTIES OF MERCHANTABILITY,
* FITNESS FOR A PARTICULAR PURPOSE AND NONINFRINGEMENT. IN NO EVENT SHALL THE
* AUTHORS OR COPYRIGHT HOLDERS BE LIABLE FOR ANY CLAIM, DAMAGES OR OTHER
* LIABILITY, WHETHER IN AN ACTION OF CONTRACT, TORT OR OTHERWISE, ARISING FROM,
* OUT OF OR IN CONNECTION WITH THE SOFTWARE OR THE USE OR OTHER DEALINGS IN THE
* SOFTWARE.
*/
// Generated on: 07.09.2021 13:23:14

#include <stdio.h>
#include <stdlib.h>
#include <vector>
#include "edge-impulse-sdk/tensorflow/lite/c/builtin_op_data.h"
#include "edge-impulse-sdk/tensorflow/lite/c/common.h"
#include "edge-impulse-sdk/tensorflow/lite/micro/micro_mutable_op_resolver.h"
#include "edge-impulse-sdk/porting/ei_classifier_porting.h"

#if EI_CLASSIFIER_PRINT_STATE
#if defined(__cplusplus) && EI_C_LINKAGE == 1
extern "C" {
    extern void ei_printf(const char *format, ...);
}
#else
extern void ei_printf(const char *format, ...);
#endif
#endif

#if defined __GNUC__
#define ALIGN(X) __attribute__((aligned(X)))
#elif defined _MSC_VER
#define ALIGN(X) __declspec(align(X))
#elif defined __TASKING__
#define ALIGN(X) __align(X)
#endif

using namespace tflite;
using namespace tflite::ops;
using namespace tflite::ops::micro;

namespace {

constexpr int kTensorArenaSize = 592;

#if defined(EI_CLASSIFIER_ALLOCATION_STATIC)
uint8_t tensor_arena[kTensorArenaSize] ALIGN(16);
#elif defined(EI_CLASSIFIER_ALLOCATION_STATIC_HIMAX)
#pragma Bss(".tensor_arena")
uint8_t tensor_arena[kTensorArenaSize] ALIGN(16);
#pragma Bss()
#elif defined(EI_CLASSIFIER_ALLOCATION_STATIC_HIMAX_GNU)
uint8_t tensor_arena[kTensorArenaSize] ALIGN(16) __attribute__((section(".tensor_arena")));
#else
#define EI_CLASSIFIER_ALLOCATION_HEAP 1
uint8_t* tensor_arena = NULL;
#endif

static uint8_t* tensor_boundary;
static uint8_t* current_location;

template <int SZ, class T> struct TfArray {
  int sz; T elem[SZ];
};
enum used_operators_e {
  OP_FULLY_CONNECTED, OP_SOFTMAX,  OP_LAST
};
struct TensorInfo_t { // subset of TfLiteTensor used for initialization from constant memory
  TfLiteAllocationType allocation_type;
  TfLiteType type;
  void* data;
  TfLiteIntArray* dims;
  size_t bytes;
  TfLiteQuantization quantization;
};
struct NodeInfo_t { // subset of TfLiteNode used for initialization from constant memory
  struct TfLiteIntArray* inputs;
  struct TfLiteIntArray* outputs;
  void* builtin_data;
  used_operators_e used_op_index;
};

TfLiteContext ctx{};
TfLiteTensor tflTensors[11];
TfLiteEvalTensor tflEvalTensors[11];
TfLiteRegistration registrations[OP_LAST];
TfLiteNode tflNodes[4];

const TfArray<2, int> tensor_dimension0 = { 2, { 1,297 } };
const TfArray<1, float> quant0_scale = { 1, { 10.686274528503418, } };
const TfArray<1, int> quant0_zero = { 1, { 58 } };
const TfLiteAffineQuantization quant0 = { (TfLiteFloatArray*)&quant0_scale, (TfLiteIntArray*)&quant0_zero, 0 };
const ALIGN(8) int32_t tensor_data1[99] = { 0, 0, 0, 0, 0, -1, 0, 0, 0, 0, 0, 0, 0, 0, 0, 0, 0, 0, 0, 0, 0, -1, 0, 0, 0, 0, 0, 0, 0, 0, 0, 0, 0, 0, 0, -1, 0, 0, 0, 0, 0, 0, 0, 0, 0, 0, 0, 0, 0, 0, 0, 0, 0, 0, 0, 0, 0, 0, 0, 0, 0, 0, 0, -1, 0, -1, 0, 0, 0, 0, 0, 0, 0, 0, 0, 0, 0, 0, 0, 0, 0, 0, 0, 0, 0, 1, 0, 0, 0, 0, 0, 0, 0, 0, 0, 0, 0, 0, 0, };
const TfArray<1, int> tensor_dimension1 = { 1, { 99 } };
const TfArray<1, float> quant1_scale = { 1, { 0.015561139211058617, } };
const TfArray<1, int> quant1_zero = { 1, { 0 } };
const TfLiteAffineQuantization quant1 = { (TfLiteFloatArray*)&quant1_scale, (TfLiteIntArray*)&quant1_zero, 0 };
const ALIGN(8) int32_t tensor_data2[33] = { 0, 0, 0, 0, 0, 0, -1, 0, 0, 0, 0, 0, 0, 0, 0, 0, 0, 0, 0, 0, 0, 0, 0, 0, 0, 0, 0, 0, 0, 0, 0, 0, 0, };
const TfArray<1, int> tensor_dimension2 = { 1, { 33 } };
const TfArray<1, float> quant2_scale = { 1, { 0.031407330185174942, } };
const TfArray<1, int> quant2_zero = { 1, { 0 } };
const TfLiteAffineQuantization quant2 = { (TfLiteFloatArray*)&quant2_scale, (TfLiteIntArray*)&quant2_zero, 0 };
const ALIGN(8) int32_t tensor_data3[3] = { 0, 0, 0, };
const TfArray<1, int> tensor_dimension3 = { 1, { 3 } };
const TfArray<1, float> quant3_scale = { 1, { 0.018087314441800117, } };
const TfArray<1, int> quant3_zero = { 1, { 0 } };
const TfLiteAffineQuantization quant3 = { (TfLiteFloatArray*)&quant3_scale, (TfLiteIntArray*)&quant3_zero, 0 };
const ALIGN(8) int8_t tensor_data4[99*297] = { 
  -65, 19, -31, -17, 1, -34, 3, 59, 75, -79, -84, 52, 20, -56, -12, -39, 105, 37, 32, -69, 66, 44, 54, 14, 14, 85, -48, 46, 75, 5, -72, 47, -19, -43, -58, 49, 2, 65, 55, 66, 34, -44, 50, 44, 5, -71, -2, -3, -4, -59, 66, 4, 29, 37, 8, -46, 9, 56, -59, 10, 8, 9, -92, -56, 29, 49, -35, 71, -78, 58, -38, 13, 16, -68, -78, 73, 89, -51, -44, -27, -57, 73, -76, 58, 27, 58, -80, 13, 46, 86, -54, 20, -63, -4, -68, 62, -19, -20, -70, -70, 12, 50, 50, 90, 73, -57, 42, -23, -63, 51, 28, 62, -71, -8, -23, -28, -86, -33, 69, -78, -57, 9, 24, 36, 2, 74, -30, 29, -28, 8, 3, 36, 63, -52, 72, -23, -20, 3, -24, 45, -16, -1, 101, 58, 46, -3, -33, 58, 99, -10, 55, 18, 16, -72, -75, 33, 58, 73, 24, 59, -37, -50, 65, 55, 24, -45, 57, -84, 35, -34, 11, -35, -20, -75, -70, -50, -59, -26, -8, -51, -81, -23, 28, 22, 88, 72, -15, 11, 11, -43, 60, -57, 25, 96, 17, -15, -59, 31, -20, 95, 65, -19, 104, -35, 10, 19, 11, -74, -67, -55, 31, -46, 10, -61, -33, 45, -72, 40, -62, 49, 94, -79, -74, 7, 44, -83, 78, -30, 3, 60, -5, 53, -76, -2, -80, 16, -64, 3, 43, 41, 6, 98, -18, 70, 9, -65, -76, 108, -40, 30, 103, -33, 20, -37, -58, 73, -12, 69, 23, -20, -9, 23, 64, -30, 77, -63, -58, -57, 64, -63, 60, 45, -47, 35, 6, -7, -35, -51, -11, 57, -34, -78, 19, 52, -11, -48, -47, -48, -3, 75, -21, -4, 11, 58, -37, -11, 67, 
  14, 17, 75, -34, 79, 51, 10, 82, -78, -5, 29, 50, 26, 87, -49, -30, 46, 48, -24, 91, -82, -12, 9, 75, 87, 77, -60, 13, 3, 45, 24, -35, 9, -22, -18, -9, -80, -11, -3, -57, 76, 45, -1, -40, 7, 14, 71, 61, -76, -63, 59, -51, 79, -74, -62, 84, 14, 74, -36, 53, -49, 18, -60, -13, -6, 23, -57, 77, 81, -71, 83, 78, 22, 73, -36, 12, -6, 68, -38, 38, 25, 8, 26, 77, -77, 56, -37, 1, -20, 62, 77, -54, -16, 22, -56, -70, 80, 25, -81, 6, -64, 80, 80, 15, 9, 70, -60, -73, -79, -52, -7, 39, -58, 65, 48, -22, 53, 87, -37, 63, -53, -46, -65, -62, -78, 17, 47, 63, -39, 36, 76, -14, -53, 90, -80, -57, -30, 4, -67, -24, -17, -5, 36, -84, -28, -27, 23, 11, 43, -17, 49, 27, 80, 44, 77, 16, 70, 50, -2, 50, -60, 36, -14, 74, 52, 71, -51, -25, -3, -66, -56, -52, 80, 67, 74, -60, 40, 11, -74, -56, 39, 47, -7, -10, 66, -83, -80, 80, -37, 14, 7, -59, -34, -12, 5, 87, 4, -78, -70, 55, -25, 59, 46, -68, -66, 58, -46, -4, 5, 33, 18, 75, -85, 39, 20, 43, -2, 66, -74, -32, 60, 58, 40, -28, -28, 37, 85, 48, 80, 18, 13, -76, -15, 16, 82, 6, -74, 74, -64, 36, -2, 60, 51, -34, -37, -44, 45, 73, -67, -69, 38, 60, -12, 49, 0, -25, 73, -72, 52, 25, -12, -78, 80, 29, -15, 68, -45, -38, -38, -31, 62, 89, -21, 14, 5, -82, 45, 73, 1, -45, -73, -13, 55, 40, 36, 12, 40, -25, -1, 14, 64, -82, -32, -68, -60, -30, 55, 
  -1, 92, 76, 68, -3, 75, 77, 64, -27, -49, 44, 82, 76, 82, -84, 28, 29, 82, 70, 61, -14, -49, 37, 81, 37, 97, -51, -4, 72, -58, 70, 73, -67, 26, -41, -51, -57, 74, 56, 28, -67, -21, -40, 84, -75, -26, 95, 53, -65, 83, -15, 81, -25, -63, 7, 88, -11, -47, -14, 29, 31, -23, 19, -43, 74, -6, -6, 25, 31, -43, -4, -5, -4, 53, -16, -21, 31, 77, 25, 90, -54, -55, 43, -82, 62, -5, 56, -65, 96, -77, -27, 34, 50, -22, -16, -53, 82, -7, 45, -42, -33, 72, 80, -5, -68, -59, 48, 48, 27, -25, 71, 15, 62, 79, -53, 22, -20, -78, 90, -80, 5, 60, 28, -56, 48, 11, -6, 42, -51, -4, 70, 65, -24, -3, -30, 80, -33, 29, -72, 44, 79, -2, -25, -29, 66, 91, 17, -48, 88, 23, -52, -24, -42, 23, 18, -49, 42, 48, 29, -85, -46, 7, -24, -5, 47, 28, 42, 50, 73, -3, 35, -83, 77, -55, -82, -51, 84, -4, 79, 48, -57, -37, -79, -36, 31, 52, -14, -16, 18, 41, -13, 65, -31, 7, -43, 9, 51, -65, 50, 15, -14, -61, 26, -3, -4, 83, -17, 67, 33, 68, 64, 86, 68, -37, -38, 30, 19, 0, -73, 49, -36, 43, 18, -60, -66, -34, 46, 78, 18, 55, 81, 48, -13, 26, -77, -40, 50, -5, 84, -6, -75, 3, -6, 3, 3, -83, 75, -44, -40, 50, -34, -34, 35, 57, -41, -75, 96, 53, -55, -41, 53, -69, -54, -2, -76, 29, 56, 7, 25, 0, 15, 23, -13, 30, 19, -51, -80, -11, 44, 69, -60, -40, 56, 56, 77, 80, -3, -79, 47, 24, 42, -84, -18, -59, 53, 48, 72, 
  -77, 7, 49, 87, -24, -49, 48, 8, 67, -26, 66, 71, 42, -73, 39, -54, 53, 44, -18, 65, -4, 52, -47, -20, 59, -58, 3, 57, 48, 36, 82, 24, 25, 44, -29, 43, -47, -19, 32, -5, -39, 40, -39, -47, 37, 3, -20, 72, -14, -25, -78, 10, -12, 43, 49, -26, 26, -55, -7, 66, -70, 7, 53, 82, -5, -64, 9, 11, -5, -29, -94, -37, 81, -29, 17, -57, -5, -59, 13, -87, 54, 32, 67, -72, -71, -47, -46, -3, -52, 21, 2, -15, -62, 1, -68, -5, 4, 45, -58, -30, -36, 58, 17, -31, -52, -33, -36, 82, 46, 22, 41, 34, 33, -23, 72, -88, 26, -3, -67, -60, -17, -19, 1, 56, -31, -60, 4, -11, 61, 82, -14, -63, 30, 7, -12, 4, -81, -56, -49, -45, 26, 88, 17, 42, -19, -40, -15, 13, 73, -47, 52, 21, 23, 12, -93, -39, 35, -54, 33, -3, 70, 23, 8, -39, 3, 69, 8, -29, -64, -77, -19, -56, 19, -21, -79, 39, 45, -23, -11, 14, -30, -93, 18, -55, -34, 74, -12, -53, -18, 26, -17, -54, 88, -89, 46, 3, -37, 3, -66, 26, -36, 68, 43, 11, -36, -88, 46, 77, 39, 10, -46, 59, -22, -64, -22, 71, -21, 18, -77, -76, -71, -43, -60, -45, 26, 55, -72, -15, -13, 29, 72, -13, 3, -24, 85, 27, 84, 12, -36, -24, 34, 23, 60, -60, 23, 9, -3, 32, -14, 25, 32, 50, 11, 66, 63, -40, -44, -47, -30, 47, 7, 71, -86, 73, 35, 57, 4, -78, 4, -33, 76, 43, 20, -75, -15, 13, 74, -79, -41, -32, -26, -17, -34, -19, 0, -43, -45, 60, 46, -67, -67, -16, -65, -26, 61, -80, 0, 
  5, 20, -33, -29, 67, 52, -1, -79, 29, -29, 3, 49, 39, 3, -48, 39, -17, -53, 11, -65, 5, 19, -62, 56, -12, 48, -69, 84, -30, 15, 61, -80, -29, 84, 14, -62, 24, 4, -40, 72, -38, -20, 46, 13, -85, -73, -6, 37, 52, -6, -67, 9, 64, -48, 27, 19, 67, 25, 10, -83, -8, -76, 58, 22, -36, 80, -54, -50, -44, 10, -44, 42, -72, -25, 44, 65, 39, 25, 8, 39, -27, 34, -35, -72, -17, 33, 62, 15, 35, -21, -26, 55, 50, -73, 59, 63, 18, -52, 56, 58, -13, 0, -56, -31, -6, 47, -82, -87, -58, 44, -79, -6, 56, 57, 45, -24, -4, -32, -8, 15, -29, -76, 66, 51, -10, -19, -39, -6, 44, -7, -35, -31, 22, 3, -40, 44, 73, 60, -52, -62, -55, -26, 45, -78, -31, -43, -23, -4, 75, 5, 36, -42, -87, 0, 15, -26, 13, 11, 23, -12, 45, 20, -77, -37, 37, 67, 7, 5, 25, 9, 10, -27, -65, -54, 7, -69, 66, 50, -55, -4, 88, -85, 24, -52, 71, -49, -30, 30, -43, 7, 57, 38, -62, 42, -1, 9, 47, -73, -33, 69, -68, 62, -77, 50, 35, -38, 22, 67, 44, 78, 83, 55, -70, 35, 0, 79, 32, 50, -14, 85, -34, 43, -32, -70, 37, -66, -22, -38, -55, 74, 29, 50, 60, 17, 16, 43, 11, 9, 16, -22, 77, -14, 63, 68, 74, 22, 53, -58, 24, 11, 43, 33, -53, 15, 50, -17, -59, -49, 19, -38, 24, -22, 59, -39, -42, -77, 21, 40, 28, 71, -63, 66, 41, 31, -47, -16, 35, 53, 32, 64, -76, -36, -28, -80, -75, 82, -72, 34, 15, 17, 4, -39, 25, 6, 58, 15, 48, 
  50, 62, 5, -63, -21, -47, -74, 23, 18, 44, 43, -12, -27, -31, 40, 34, -60, 42, 84, -86, 36, -20, -76, 77, 15, 62, 82, -15, 69, -43, 88, 17, 39, 32, 48, 19, 12, 54, 47, -53, 62, -4, -21, 57, 18, 66, -72, 57, -41, 62, 27, -15, -10, 22, -37, -67, -55, 26, 10, 76, -33, -10, 87, 53, -40, 54, 45, -36, -32, 5, -44, 46, 83, -47, 25, -58, 33, -5, -52, -85, -78, 38, -37, 15, 36, -63, 85, 16, 10, 1, -55, 52, 84, 35, -75, -23, 2, -54, 44, 69, -30, -61, 47, 16, 35, 79, 12, 77, 15, -73, -72, -7, -65, -45, 29, -36, 40, 17, -15, -21, -2, 29, 73, -25, -77, 60, 2, 12, -48, -11, 25, 59, -22, -60, 74, -29, -38, 12, -26, -69, -77, 29, 1, -38, -58, -70, -77, 26, 15, -77, -53, -67, -39, -67, 13, 28, 70, -89, -61, 32, 61, -35, -14, -9, -22, 46, 65, 18, -71, -72, -31, 45, 32, -14, 30, -1, -38, -31, -32, -69, -67, 58, -46, 36, -8, -8, 24, -58, -33, -36, 27, -71, -61, 41, 22, 7, 34, 79, -45, 65, 53, 48, 8, 51, -32, 33, -3, 58, -25, -11, 19, 26, 54, 25, -16, -37, 60, 18, -43, -29, -59, 70, -74, 63, -77, 47, -70, 60, -21, -15, 28, 34, -73, 59, 36, 57, -43, -36, 20, 40, -25, -41, 10, -44, -5, 56, 0, 26, -34, -2, -85, 57, 7, -81, 13, 77, 12, 58, 84, -52, -8, 43, 62, 57, 84, -25, -26, -3, -5, 4, 48, -14, 34, -35, 67, -59, 14, -86, -11, 93, -77, 35, -39, -33, -37, 19, 23, 70, 19, 2, -48, -11, 68, 69, -9, -8, 56, 
  -59, 35, 30, -37, 60, -45, -49, 31, 53, 83, 25, 19, 69, 4, -66, -25, 58, -79, -13, -57, 72, 61, 51, 21, -64, 34, -58, 54, -51, 14, 12, -43, -69, 47, 29, -41, 45, 84, 74, 33, 55, -49, 55, -65, 8, -24, 83, -7, 5, 80, -16, -51, -30, 73, 29, 50, 19, 72, -3, 7, 23, -80, -13, 18, 30, 68, 35, -78, 34, -75, 6, 62, 36, -77, -39, -31, -15, -55, 48, -29, 79, 19, 58, 25, 13, 57, -78, 54, 53, 78, 82, 12, -24, -27, 64, -4, 27, 23, 73, 85, 10, -63, 54, -53, 50, 65, -79, 10, -6, 37, -49, 70, 1, 60, 26, -60, -23, -58, -40, -27, 72, -45, 13, 40, -58, 65, -39, -53, 7, 40, -13, -55, 85, -28, 23, -40, -76, -56, -59, -43, 82, 88, 25, 75, 33, -48, 62, 41, -55, -47, -29, 3, -59, 37, -32, -42, -36, -14, 63, -4, 41, -3, 24, -23, 43, -71, -7, -54, -80, 32, 85, 10, 49, -54, -66, -70, 76, 58, -2, -33, -11, 53, 19, 27, 40, -28, 17, -31, -68, -81, -78, -80, -60, -47, 24, 48, -14, 84, 55, -16, 78, -7, -45, -68, 26, -53, -22, -52, 29, 14, 12, -22, -75, 19, -45, -61, -47, -72, -10, 56, 80, 50, -58, 34, 20, -3, -42, 65, 6, -24, 58, 2, -28, 16, 64, 33, -33, -14, 83, 46, 68, -54, 0, 74, -50, -47, 17, 27, 17, 76, -25, -14, 30, 83, 35, 32, -53, 84, -67, -9, 52, -18, 0, -62, -51, -53, -25, -7, 32, 59, -25, -57, 74, -10, 74, -9, 81, -7, 33, -53, 60, -36, -77, -41, -34, -71, 24, 85, 1, 7, 3, 51, -39, 23, 51, -44, -42, 
  -26, 41, -32, -3, -72, 63, 68, -17, -15, 85, -50, -17, -66, -85, 72, -68, -30, -53, 11, 12, 55, -9, 9, -37, 10, -52, -41, 63, -37, 73, -3, -54, 53, 87, 21, -64, -46, -28, -54, -31, 61, -25, -40, 9, 52, 21, 13, 47, -27, 60, 25, -21, 44, 85, -18, 44, 75, 23, -9, -4, -51, -6, 62, -26, 7, 9, 14, -19, -30, 37, 37, -8, 1, 76, 57, -34, 12, 88, -54, -6, 47, -23, 16, -2, -5, 58, -34, -48, -52, 21, -20, 16, 35, 9, -54, 80, -75, 16, 31, 51, -52, 35, -30, 60, 23, -66, 36, 73, -4, -76, 11, 3, -18, 81, 20, -55, 64, 75, 63, -35, -72, -76, 43, -4, 18, -16, -54, -4, 71, 51, 14, -46, -38, -44, 31, 38, -74, -31, -28, 78, 36, 11, -45, 80, -73, -52, -49, -32, -22, 44, -54, 23, -53, -54, 40, -42, 72, 10, -63, 12, 66, -4, 67, 20, 89, 43, 93, 45, 20, -57, -49, 82, -37, 25, 86, -30, 15, -28, -37, 13, -4, 67, -62, 60, 0, -28, -25, 21, -39, -46, 64, 17, -29, -49, 62, 74, 50, -7, 86, 0, 85, -40, 50, -23, 67, -20, 39, 4, 56, -44, 8, 63, 27, -83, -77, 1, 74, -25, 16, -59, 7, -7, -15, -36, 47, 55, 21, 4, 79, 36, -63, -69, -42, -40, -34, -58, 20, -45, 41, -16, 35, -26, 61, -84, 74, -26, -80, 45, 80, -75, 31, -36, 32, -29, 51, 38, -36, -47, 20, -7, -55, -49, 0, 56, -49, -10, -16, 89, 32, 100, -59, 10, -59, 60, 56, 77, -72, -5, -5, 55, 67, -6, -80, 36, 59, 42, 52, -52, -59, -76, 49, -28, -101, -64, 0, 55, 58, 
  24, 84, -65, 17, 16, 72, -55, 67, 56, -45, 25, 84, -36, 11, -70, 66, 39, 27, 54, -44, -42, -10, -32, 34, 60, -29, -13, -23, 19, -69, -76, -45, -6, 43, 19, -81, 64, -60, 58, 30, 69, -19, -51, -59, -6, 12, -14, -16, 64, -11, -36, 2, -3, 63, -70, -12, 5, -49, 54, 41, 24, 35, 8, -21, -24, -14, -68, -62, -47, 9, -14, 32, 22, -71, 47, -80, 23, -9, -35, -30, -28, -44, -36, -18, 11, 39, -55, -72, 60, 11, 83, 72, 20, -58, 49, -33, 6, -8, -10, 23, -58, 32, 52, 70, -64, -37, 66, 73, -78, -101, -12, 77, 9, -18, -34, -61, -1, -61, -32, 59, -30, -1, -1, 7, -79, 6, -59, 5, -71, 31, -57, -78, 51, -23, -2, -25, -73, 65, 28, 53, -45, 53, 24, -33, -30, 51, -40, 45, 60, -22, -81, -55, 43, -15, -86, -67, 12, 43, 71, -15, 28, 33, -20, -58, 10, 85, -4, 16, -43, 69, 6, 16, 25, -69, -41, 45, 26, -49, 6, -25, 62, -67, 77, -14, -29, -51, 15, -44, 15, -14, 7, -51, 75, -39, 24, -38, 60, -20, 38, 0, 73, -23, -4, -66, -13, -12, -40, -5, -60, 50, 0, 6, -9, 17, 20, -77, -23, 41, 12, -44, 37, -45, -70, 20, -31, -74, 63, -23, -72, -26, 6, -30, 16, 2, -55, 2, -25, 20, 27, -49, -65, -48, 67, 20, -31, -28, 43, 38, 46, 8, -99, -49, -8, 48, 44, -79, -7, 36, -29, 76, -75, 64, 3, -30, -68, -5, 52, 54, -31, -81, -14, -14, 35, 36, 39, -64, 61, -74, -7, 46, 41, 71, 22, -85, 40, 37, -89, -52, -72, -61, -26, 32, -62, -69, -83, 16, -62, 
  -1, 36, 45, 23, -44, -25, 4, 21, -41, 24, -84, 30, -68, -3, -24, -18, 102, -51, -64, 11, -63, -49, -9, -41, -72, 66, -38, 41, 45, 23, -78, 10, -43, -69, -73, 27, 15, 7, -15, 48, 0, 30, -8, 49, 59, -77, 47, 22, -75, 46, -26, -69, -42, -17, -79, 32, 38, 48, -27, 18, 12, 59, 56, -34, -18, 74, -37, -34, -76, -55, -56, -87, 24, -55, -46, -18, 18, -69, 66, 13, -26, -4, 35, 14, 48, -91, -25, 83, -66, -49, 31, -69, 68, -78, 42, -29, -6, 19, -25, -19, 65, -50, -16, -66, 38, 88, 59, 76, -70, 77, 31, 61, 56, -60, -21, -12, 67, 11, 3, 1, 21, -49, -44, -23, 40, 42, -12, -31, -36, 55, 6, 93, -32, 45, 16, -68, 14, -37, 42, 46, 75, 81, 52, 14, 59, -38, 68, 39, 36, -58, -70, -1, -83, -76, -19, -75, -65, 15, 57, -50, -64, -53, -44, 53, -19, 19, -58, -53, -22, 45, 16, 41, -32, 2, -44, -37, 47, -55, 27, 8, 43, -50, -73, -42, -12, 9, 61, -4, 20, -56, 27, -82, -44, 20, -47, -83, -45, -40, -87, -6, -13, 51, 76, -62, 19, -5, -52, 49, 27, 41, 50, 75, 55, 18, 26, 68, -77, 13, 19, -23, 56, -61, -23, 33, 68, 72, 77, -70, 74, 67, -46, -22, -44, -35, 17, 30, 72, 25, 21, 28, -48, -35, 58, -33, -31, -82, -20, -16, 4, 94, 19, 35, 81, 88, 17, 22, -78, 17, 10, -51, 56, 89, -28, -55, 71, 41, 7, -2, -61, -41, -76, -76, -77, 58, -32, 74, 11, 67, 27, -67, -8, -42, 69, 56, 63, -10, -41, -55, 36, -48, -8, 2, -57, 62, 71, -70, 47, 
  -64, 4, -85, -7, 29, 35, 6, 75, 68, -77, 47, -25, 26, 70, 88, -33, -5, 54, -23, -72, 72, -9, 45, -9, -21, 20, 27, -60, 50, -61, 44, -34, -64, -73, 27, -82, -13, -35, 71, 63, -1, -51, -68, 30, -8, 60, 28, -22, 40, 90, 13, -17, 69, -47, -77, -30, 80, -33, -63, -17, 44, 85, -57, -3, 29, -59, -5, -51, 66, -14, -38, -51, 58, -40, -43, 10, 68, 23, 73, 24, -36, 13, -40, -77, 12, 41, 6, -27, -20, -8, 53, -79, 65, 61, 47, 27, 12, -23, 39, 51, 60, 75, 54, -61, -31, -19, 41, -7, -9, 76, 35, 22, 88, 43, 77, -55, 40, 78, 21, 52, -59, -23, -62, -82, 43, 18, -44, -32, 13, -79, -36, 17, 52, 85, 55, 11, -46, -18, 25, -5, -9, -10, 7, -22, -40, -38, -81, -12, -30, -13, 7, 67, -81, -35, 49, 61, 27, -37, 6, -33, -63, -69, 35, -42, 30, -39, -46, -8, 69, 56, -19, 7, -54, -76, 10, 44, 79, 35, 65, 13, -58, -36, -35, 25, 43, 32, -30, -48, 32, -29, 25, 68, -78, -48, 57, -18, -14, -31, 45, -55, -6, 43, -79, -79, 54, -17, -46, 64, -37, 26, 60, 37, -38, 65, 82, 88, -56, 17, -80, -61, -34, -59, -22, 69, -39, 89, -76, 78, 84, -69, 6, 8, -36, 70, -26, 23, 19, -25, -28, 78, 85, 13, -15, -77, -36, -23, 45, -16, -39, -18, 18, -22, 3, -18, 64, 18, 8, -67, -22, 11, -29, 82, -49, -17, -52, 59, 64, -41, 62, 61, 62, -34, 44, -28, -61, 11, 81, -74, -33, -26, -71, 29, -59, 10, 80, 55, 27, 80, 69, -2, 65, -82, -40, 76, 14, -68, -34, 
  72, -25, 5, -49, -22, 4, 41, -28, 7, 12, 55, 20, -27, 65, 19, 23, 86, -30, 84, 11, -62, -78, 84, 74, 27, -53, 78, 48, 56, 73, 37, 76, 79, 37, -31, -81, 49, 20, 41, 38, 72, -16, 70, 70, 83, -44, -25, -38, -57, -37, -37, 6, -5, 36, -48, 7, -62, 34, -68, -68, -74, -44, 79, -61, 29, -22, 46, 32, -34, 5, 50, -39, -81, -62, 42, -68, 47, -32, 69, -18, -79, -61, 17, -60, 85, -37, 27, -20, -60, 44, -75, 29, -13, 3, 76, -14, 48, 38, 77, 58, -73, -69, 81, -61, -57, 59, 51, 44, -60, -33, 86, -76, -13, 10, -76, 28, 53, -75, 81, 41, 54, -78, 63, 41, -79, 23, 25, -40, -17, 72, -22, -20, -9, -3, 35, -77, 69, 68, 1, -65, 35, 23, 78, 63, -31, -80, 58, 68, -76, -59, 30, -43, -69, 13, 30, 20, 21, -17, -81, 74, -57, 82, -59, 35, -16, -28, -73, 64, -43, -44, -29, 39, -37, 29, -51, -76, 37, 28, 38, 67, -30, -41, -9, 61, -26, -32, 65, 52, -22, -66, 48, 9, -51, -50, 51, 35, 8, 73, -71, -80, -27, -19, 62, -54, -58, 51, -7, -17, -67, 76, 71, -37, -44, -52, -19, 36, 85, 2, -43, -44, -16, -72, 34, -14, 17, -36, 1, 12, -12, 81, -28, -47, 3, 85, -65, -1, 3, 45, -49, 63, -19, -76, -60, 72, -75, -17, 80, 41, -50, -2, 87, 61, -35, 40, -81, 44, 31, 3, -78, -24, 11, 32, 73, 73, -34, -21, -48, 22, 25, -73, 45, 38, 2, -33, 15, -77, 48, 43, -56, 55, 4, -19, 28, -23, -36, 38, -70, -50, 75, 41, 39, 4, -47, -47, -9, 72, -9, 
  34, 75, 4, -35, -15, -62, 40, 50, 39, -53, 62, -15, 10, -47, 47, 49, 92, -26, -46, 42, -77, 40, 64, -44, 46, -58, -26, 66, 55, -39, 15, -10, 70, 13, 7, 63, -22, 59, -55, -72, -38, 36, 46, 37, 75, -26, 50, -9, 6, 32, 61, 61, 34, 70, 31, -62, 62, 32, 61, 43, -71, 3, -9, -59, -39, -54, 59, 7, -8, -30, -79, 78, -13, -71, -25, -51, -11, 67, 27, -103, 20, 20, -84, -52, 1, 48, -8, -60, 23, 6, 39, -8, -29, -3, -9, -24, -25, -72, -2, 16, -22, -75, 29, 82, -46, -67, -44, 65, 49, -45, -49, 61, 78, 33, -58, -6, -45, 9, 19, 35, -51, 2, -59, 84, 7, -6, 21, 78, 19, -43, 46, 61, -80, -63, -54, -13, 26, 70, -27, -6, -55, -61, 27, 65, -65, 49, -65, -45, 92, 77, -17, 33, -18, -40, -67, 58, 13, -11, -49, -33, -63, -56, 15, 40, -67, -67, 34, 32, 19, -52, 30, -28, 84, 73, 85, 10, -79, 25, 34, 7, 88, 61, 64, -26, 43, 77, -27, -90, -21, -55, 36, -53, -30, 21, -47, -6, 67, -52, -91, 2, 37, -55, -29, -15, 33, 60, -71, -2, 72, 86, -38, -35, 18, -32, 62, 40, -44, 79, 40, -22, 28, 7, 54, -5, 46, 37, 67, -78, -30, 76, 33, 53, -40, -15, 65, -39, 52, 23, -57, 6, 31, 15, 3, -38, -2, 68, 21, 23, 66, -65, 39, -80, 26, 21, -57, -11, -91, -31, 0, 28, 3, -46, -45, -35, -27, -75, 45, 40, -63, -43, -34, -80, -74, -8, 30, -12, -47, -32, -37, -50, -34, 5, -63, 49, 61, -53, -32, 40, -19, 4, 74, 42, 82, 12, -45, -4, 17, 
  11, -29, -20, -59, 51, 72, -72, -38, -4, -2, 69, 41, 73, -24, -51, 76, -80, 27, 80, 46, 53, -25, -18, -70, 85, 53, 56, 54, 18, -26, 17, -59, -52, -52, 48, 52, -68, 53, -86, 13, 60, -6, 77, -59, -39, -40, 57, 41, 37, 61, -78, -69, 13, -6, 13, -4, 70, -20, -68, -58, -17, -62, -48, -74, 10, -64, 60, -39, 23, -55, -32, -7, -16, 18, 49, 81, -83, 41, 77, -3, -16, 63, 30, -12, -38, 13, 7, 13, 61, -6, -15, -63, 61, -55, -57, 56, -77, 73, 17, 31, 26, 79, -17, 42, -56, 33, 11, 5, 50, 28, 70, 4, 55, 64, 50, -56, 71, -8, -9, 26, -2, 7, -50, 24, 14, -13, 1, 56, -39, -65, -14, 41, 82, 0, -14, 24, 3, -46, -29, 29, -59, -57, -28, -32, -76, 17, -36, 45, 68, 50, 17, -9, 15, 23, 69, 44, 6, -22, -29, -12, -18, -72, 14, -13, -34, 30, -25, 64, 70, -64, 73, -12, 16, -4, 75, -60, 41, 60, 78, -62, -60, 63, -18, -26, 2, 65, 50, 13, 34, -17, -19, -25, -66, -56, 13, 66, 29, -21, -22, -57, 26, 70, 72, -3, -44, -46, 81, 40, -31, 82, -38, 34, -11, 24, 40, 69, 48, 22, 13, -50, 42, -62, 8, -79, -72, 78, -11, 35, 19, -34, -33, 66, -24, 4, -54, -53, -70, 13, 75, -51, -13, 41, -66, -46, 66, 58, -69, 34, -51, 82, -55, 49, 79, -65, -36, 63, 30, 0, 56, -61, 80, 68, 44, -14, 45, -13, -81, -47, 55, -31, 75, -39, -59, -59, 61, 11, 6, -7, 41, -62, -60, -49, 58, 44, -34, 21, -71, 25, -9, 22, 4, -4, 36, 15, 38, -42, -74, 
  -45, -17, -4, 41, -42, -61, -25, 29, 67, 57, 39, -47, 34, -39, 73, -67, -42, 61, -17, 43, -42, 5, -5, 35, -76, 33, 81, 85, 12, 60, -45, 81, 25, -36, 86, -59, 54, -32, 29, 48, 50, -38, -63, 4, -37, 81, -43, 42, -45, -47, -27, 3, 25, -28, -53, -31, 50, 53, -21, -8, -73, 26, 84, 55, -15, 0, -57, -75, 39, 26, -78, -49, -41, 10, 28, -70, -27, -11, 33, -75, -56, -36, -72, 64, -1, -3, -37, -55, -58, 4, -45, -66, -23, -60, 21, 23, 31, -41, -44, -4, -44, -31, 70, -25, -45, 11, 82, -10, -24, 74, 47, 88, -58, -14, -53, -13, 41, 15, 8, -46, -15, 3, -23, 71, -21, -24, -72, -13, 50, 6, 23, 31, 50, -19, 65, 86, -39, 35, -47, 59, 73, -56, 44, 33, 44, 3, 53, 85, 76, 50, 34, -1, 64, 21, -10, 72, 36, -30, 80, -22, -39, -30, -28, 67, 58, 87, -19, 86, 6, 54, 36, -48, -44, 77, 16, 51, -31, 19, 22, 5, -59, 83, 9, 6, -78, 54, 19, -67, 83, -48, 84, -71, 72, 10, 71, -16, -25, -11, -26, -1, -43, 57, 2, 19, 17, -11, 3, 77, 19, 21, -63, -49, -28, 57, 51, -33, -47, -23, -62, -46, -40, 70, -49, 60, -51, -43, -71, 25, 66, -59, 10, 34, -56, 18, -39, 86, -41, -14, 24, 31, 52, -76, 35, 44, 47, 12, -58, 41, -65, 50, -11, -11, 27, -65, -34, -36, 36, 32, 17, 15, 50, -67, -51, -6, -74, 44, -74, 71, 35, -35, 18, -10, 30, 7, -21, -40, 52, 23, -31, -18, 10, -29, 62, 18, -77, -52, -30, -17, -4, 24, -64, 76, 73, 28, 17, 85, 51, 
  -48, -26, 84, -77, 44, 30, -62, 29, 13, 1, -11, -14, -74, -59, -80, 81, 70, -78, -55, -44, 5, -52, 83, -5, -49, 36, -67, 30, 34, 73, -37, 55, -74, 41, 83, 78, -63, -21, 65, 13, 33, 25, 84, -40, 16, 20, -76, 88, -52, -17, 76, 7, -46, 5, 76, -67, -70, 25, -34, 49, 2, -50, -56, 86, -44, -60, -24, 84, -32, 63, 3, 38, 16, -33, -9, -72, -54, -79, 75, -81, 20, -22, 23, -39, -57, -18, 50, -7, 12, 6, 13, 6, -79, -68, -39, 28, 81, -43, 30, -47, -30, 1, 4, -42, -5, 75, 50, -10, -41, 85, -61, -22, -44, -47, 68, 52, 43, 30, 33, 34, 22, -79, 61, -43, -73, -15, -52, -43, -52, 54, 84, 21, 29, 52, -61, -8, 27, 11, -79, -51, -31, 70, 45, 12, -3, -23, -66, 15, 55, -8, -34, -14, 13, 66, -50, 32, 88, 58, -5, -69, 65, -9, -16, 50, -53, 50, 21, 77, 57, 1, 79, -37, 23, 64, 36, 73, -51, 62, 41, 61, -70, 38, -22, 59, 13, 55, 87, 24, -10, -13, -26, 53, -52, 40, 50, 60, -35, -9, -43, -37, 52, 80, 13, -64, 56, 5, -78, -19, -39, -6, -79, -79, -13, 71, 55, 19, 62, -76, 75, -5, -6, 33, 56, 7, -40, 48, 1, 26, 54, -44, -34, 57, -1, 7, -62, 36, -58, 37, 42, -59, -21, -60, -30, -74, 30, 42, 16, -62, -77, 58, -34, -72, 41, 52, 10, -35, -18, -70, 20, -2, 2, -76, 69, -72, -29, 10, 37, 64, 82, 38, -13, -75, 14, 13, 6, -5, -2, -47, -28, 38, 29, 13, -6, 5, 39, -52, 57, 56, 1, 41, 30, 84, -38, -52, 38, -69, 86, 
  -61, 71, -72, 20, -80, -60, 82, 69, 40, 65, 28, 50, -58, 23, 59, 11, 53, -74, 18, 79, 55, 15, 66, 25, -80, 70, -83, -61, -45, 21, 23, -68, -10, 74, 31, -52, 80, -84, -42, 70, -62, 28, -65, -27, 64, 22, -34, -34, -48, -13, 9, 50, 7, 4, -73, -57, 37, -2, -36, -18, 45, 41, 57, 43, 9, -62, 15, 43, 81, -7, -59, 57, -11, -2, 32, 84, -38, 0, -34, -31, 29, 52, 36, 15, 51, -17, -63, -74, -26, 78, 69, -17, -60, 53, -10, 61, -10, 62, -50, -37, -25, -84, 9, 60, -59, 47, -78, -18, -80, -82, -39, -33, -13, 0, 20, -71, 26, 74, 9, 5, 53, 36, -66, -52, -77, 2, 41, 64, -52, 40, -18, -58, -16, 3, 12, 75, 55, 22, -36, 74, 49, 72, 66, 33, -74, -50, -9, -39, -67, -73, 24, 64, 20, -51, 7, -49, -69, -48, 45, 19, -40, -30, 48, 16, -23, 45, -11, 66, -50, 70, -61, 60, -42, -24, -19, -45, -37, 19, 21, 53, 26, 8, 60, -37, 78, 60, 20, 68, 77, 12, -25, 13, 23, -60, -72, -8, 4, -72, 30, 0, 78, -52, -6, -54, -30, 8, -27, -46, 80, 81, 11, 45, 67, 31, -47, 80, -1, -45, -20, 70, 30, 43, 75, 46, 80, 71, -25, 63, 46, 76, 50, 44, 57, -19, 17, 67, -46, 34, 36, 19, 66, -31, 27, -63, -69, 35, 50, 25, -75, -18, -75, 5, -78, 25, 43, -46, -1, -43, -57, -18, -47, 53, -74, 40, -34, -4, -72, -4, 5, 50, -28, -60, -21, 67, 78, 18, -39, 13, -22, 45, 10, -83, -23, -15, -34, -41, -71, -65, -41, -49, 64, 70, 37, 46, -23, -36, -84, 
  -33, -2, -47, -11, -73, -15, -72, 42, -59, 7, 69, 40, -12, -23, 40, 55, 47, 19, 55, 14, 38, 35, -15, -40, -48, -22, 58, 45, 11, 45, 62, 14, -61, -21, 40, -67, -32, -23, -45, -1, -66, -45, -77, -30, -85, -58, -41, -17, -24, -80, 69, -64, -95, -65, -70, -47, -19, 68, 48, 21, 29, 25, -30, -70, 31, 19, -12, -75, -52, 18, -72, -84, -40, -77, 51, -77, -15, -17, 40, -47, -19, 56, 80, 40, 59, 40, -33, 74, 70, 36, -27, 4, 78, -63, 93, -15, -41, 40, 14, -68, -19, -42, 5, -6, 12, 22, -15, 46, 31, 35, -68, 34, 75, 74, 47, -54, 66, 57, 66, 0, 11, 38, 59, 82, 24, 9, -55, -104, -76, -29, 6, -52, -49, 29, -39, -16, 50, 52, 62, -10, -20, -24, -76, -41, -66, 4, -69, -28, -69, 23, 10, 72, 20, -38, 3, 38, -71, 9, 5, 58, -60, 52, 46, -44, -50, 73, 1, 38, -57, -48, 90, 76, 50, -58, -28, 81, 8, 58, 37, -56, 28, 74, -32, -18, -40, -17, 10, 2, 21, -76, 0, 61, 58, -74, 20, 44, -48, 15, -62, 15, -36, -27, 10, 63, -68, -67, -43, -8, 37, -79, 60, 28, 42, -52, -88, 12, 58, -60, -61, 12, 34, -54, 32, 1, -11, -22, -45, -18, 57, -70, 36, -15, -78, 36, -1, -16, 46, 23, -33, 89, 86, -55, -5, 11, 25, -83, -50, -1, 58, 44, -33, -25, 11, -6, 36, -2, 6, -37, -7, 9, -2, 15, -68, -13, 82, 70, 21, -74, 63, 25, 40, -61, 42, -1, 31, -56, 69, -62, -76, 19, 8, -65, 22, -92, 72, -20, -12, -83, -75, -46, -85, -63, -64, -60, -46, 0, -11, 
  -52, -32, 3, -59, 21, 67, 60, -62, -34, -61, -81, 9, 37, 2, -33, -56, 23, -11, 71, 52, 19, 12, 1, 76, -67, -66, -8, 28, -30, -33, -37, -29, 82, -3, -62, 73, 0, -19, 27, -51, 52, 74, 67, 18, 34, -38, -42, 78, -56, 65, 65, -52, -53, -66, 33, 72, 74, 6, 44, -78, 69, -38, -45, -47, 38, 52, -33, 79, 6, -13, 16, 14, -42, -15, 2, 30, 54, -57, 60, 70, -29, 9, 69, -84, 68, 14, -70, -43, 47, 6, 51, -32, 8, -51, 37, -29, 66, -65, 46, -73, 79, 15, 49, 47, 25, 51, 39, 62, 56, -8, -5, 22, -26, -71, 33, -44, 29, 49, -32, 37, 62, -50, -66, -49, -67, -54, -78, -52, -59, 73, -32, 71, 40, -61, -56, -70, -43, 59, 23, 40, 24, 9, -37, -17, -80, 47, 23, -37, 30, -20, -31, -42, 33, -21, 72, -63, 78, -22, 85, 88, 30, -36, -5, -63, 14, -76, 44, 70, 88, -47, -62, -51, 60, -71, 18, 16, -31, 89, 30, -54, 21, 81, 25, -80, 11, -20, -30, 72, 20, 65, 41, 25, -9, -41, 34, -16, 46, 71, -5, -43, -13, -68, 81, 74, -79, -60, -2, 61, -10, -37, -27, -77, 10, 4, -65, 47, 10, -7, -64, -27, -38, 84, -3, 7, -27, -43, 8, -20, 68, 73, 63, -9, -65, 0, 89, 38, 11, -35, 59, 53, 43, -76, -55, -20, -75, 26, -8, 47, -1, -71, -62, 60, -76, -28, 56, -23, -2, -20, -47, -42, -54, 15, 69, 68, 82, -44, 12, 87, 34, 73, 34, -50, 60, 25, -15, 79, -3, 48, -52, -77, 8, 13, 37, 18, 70, -55, 43, -62, -29, -27, 67, 81, 61, -80, 84, 29, 78, 
  -20, 28, 4, 44, 16, -1, -79, -50, -38, 57, -25, -4, -9, -75, -85, 35, 45, 78, 74, -31, 71, -44, -43, 22, -52, -6, -39, 75, -36, -20, -19, -41, 17, 85, -71, 26, -9, -84, -88, -3, -85, 7, -26, -75, -2, 61, -65, -61, 70, 35, -14, 26, 20, -12, 33, 58, 19, 87, 9, 77, -76, -59, 60, 10, 15, -84, -10, -19, -39, -12, -74, -72, -3, 66, -71, 71, 39, -33, -62, 46, 52, 3, -69, 81, -20, 16, -41, 34, 4, -2, 62, 78, 7, 72, -59, -12, -72, 51, -56, 46, -79, -27, 58, -27, 18, 5, 43, 79, 87, 77, -65, -58, 34, -68, 45, -43, -16, 36, 4, 22, -66, -68, -60, -58, -42, -32, -4, 69, -50, 6, -11, 69, -55, 44, 77, 71, 77, 14, -56, 60, 33, 42, 48, 1, -25, -16, 0, -48, 78, 19, 48, -26, -3, 25, -32, -17, -75, 74, -68, 54, -81, 67, -53, -4, 27, 36, -55, 79, 64, -79, 43, 12, -34, 14, -45, -73, 12, 73, 38, 74, -21, -35, 29, 86, 64, 19, 57, 26, 38, -50, -26, -7, 84, 43, 28, -28, 25, 66, 48, 38, 50, 48, 23, 19, -52, -37, -78, -38, 71, -60, -37, -83, 43, -62, -43, 43, 16, -3, -56, -19, -24, -36, -16, 39, -22, -69, 45, 18, 14, -55, -26, -47, -9, 78, 16, 31, 1, 33, 3, 30, -1, -26, -64, 28, -30, -41, 10, 15, 59, -17, 66, -14, 86, 79, -23, 2, -31, 11, 40, -36, -83, -16, 16, -71, 24, -71, 39, -35, 34, 15, -36, 17, -11, -3, 32, 69, 28, -3, 44, 79, -23, -20, -16, 73, -16, -10, -3, 71, 57, 47, -78, 30, -36, 37, 22, -40, -62, 
  -56, 4, -68, -20, -39, -27, 16, 36, -19, -4, 89, -75, -11, 31, -74, -78, -15, 48, -23, 65, -73, 57, 26, 42, 70, -5, 55, -21, -41, -23, 49, -80, -55, -69, 23, 69, -67, -52, -39, -74, -40, 64, -40, 4, -55, 37, -57, 30, 7, 42, 38, -7, 23, -71, 63, 25, 68, 27, 13, 11, 25, -67, 9, -71, -63, -29, 3, 59, 42, -27, -47, -17, 22, -1, -38, -53, -14, -23, 35, -37, -76, 80, -61, 9, 24, 44, 16, -79, 25, -20, -45, -33, 3, -63, -15, -18, 61, 62, 42, 4, 3, 79, -1, -4, 7, 44, 9, -81, 88, -35, 10, 25, 1, 4, 84, -37, 9, -14, -60, -15, -17, -31, 71, -9, 46, -49, -70, 65, 52, -70, -37, -71, -17, 81, -37, 4, -19, 53, -25, 75, 50, 70, 48, -79, 25, -88, 8, 45, -1, 23, -75, 51, -83, -60, -93, 44, -5, 45, 81, 80, 55, 32, 12, -16, -12, 57, 55, 65, 78, -71, -31, 18, -53, -33, -11, 60, 5, -63, -78, -33, -34, -70, -52, 63, 66, 56, -71, 34, 65, 64, -45, -35, 49, 18, 27, 15, 62, -25, -63, -62, 50, -57, -13, -57, 50, -33, -81, 41, 46, 10, 46, -69, -9, -78, -18, -51, 73, -79, 12, -61, -31, -76, -1, -58, -7, 5, -32, 39, 45, -50, 56, -64, -16, -42, 83, 77, -52, 71, -26, 51, -24, -74, 74, 35, -43, -32, 66, -95, 82, 65, -60, -76, -16, -47, 47, -21, 69, -14, 17, 50, -78, -68, 41, -21, 42, 24, 84, -45, -49, -3, -6, 66, 50, 14, 23, -77, 27, -25, 41, 85, 48, -79, -23, 58, -36, -20, -66, 82, 48, -23, 17, -21, 52, 79, -62, -25, -65, 
  22, -40, -17, 59, -56, 35, -76, -37, -18, -27, 19, -43, -44, 81, -73, -47, -78, 11, 0, 40, 7, -69, 36, 23, 36, 34, -37, 42, -49, 47, -59, -30, 93, 5, -42, 84, 84, -62, -36, 55, 79, 83, -46, 61, -76, 2, 40, 14, 29, -46, -26, 78, 41, -65, -66, -20, -73, 68, -63, 6, 6, -53, -77, -31, 66, 0, 2, -77, -20, 49, -79, 75, 70, -62, -7, 63, -33, 5, 58, 98, -17, -24, -62, 70, 63, 22, -56, 90, -43, 63, -58, -27, 35, 54, 84, -47, -23, -75, 49, -67, 4, 5, 74, 43, 52, -60, 22, 9, 48, -45, -63, -63, -4, -32, -70, -7, -38, -66, 36, -34, -42, -47, 59, -58, -8, 26, -47, -39, 59, 42, -16, -45, -64, -10, -69, 2, -31, -70, -69, -63, 55, 86, 60, 75, 40, -76, 39, 76, -15, -26, 26, -79, -79, -36, 6, -1, -4, -38, -17, 54, -55, -40, -9, -60, -42, -14, -11, -51, -4, -41, -43, -72, 20, 60, -13, -61, -34, -76, 51, 77, -39, -44, -63, -61, -24, 73, -12, 77, -20, -58, 13, 24, -7, 54, 36, -49, -78, -8, -4, 25, -72, -62, 35, 37, -20, -60, 2, 70, 12, -39, 11, -8, -81, 59, -51, -60, 42, -59, -71, -51, -18, 95, -9, -15, 95, 24, 102, -16, 49, 98, -29, -59, 40, -36, 64, -9, 58, -12, -9, -54, -7, -60, 11, 79, -48, 93, 0, -1, 71, 74, 28, 3, -45, 17, -87, 30, -15, -26, -10, 120, 71, -42, -20, 47, 86, 99, 59, 4, -53, 94, 30, -65, -5, 52, 32, 46, -76, 14, -39, 4, -17, 74, 2, -36, 90, 34, 20, 15, -70, 40, 95, 38, 42, 32, -10, -19, -65, 
  -82, 53, -42, 27, 52, -10, 6, -27, 0, 7, -25, -42, -47, 70, 32, 40, 39, 78, -56, -69, -61, 71, 14, 22, 66, -34, -56, -8, -34, 26, 73, 11, 49, -68, -18, 52, 75, 35, 34, -29, -16, 22, -52, 45, -45, -16, -45, -62, -54, 56, 16, -27, 11, -49, 59, 79, 78, -46, -52, 78, 57, 51, -12, -46, -77, -77, 10, 20, 11, 81, -10, 55, 82, 16, -84, 55, -20, -6, -78, -47, 24, 9, -41, -66, 16, 84, -43, 71, -30, 48, -57, 83, 18, -45, -27, -45, -58, 3, -68, 82, -18, 64, 0, -7, 20, 55, -36, 38, 52, -16, 56, -9, -44, 46, -84, 2, -50, 66, -79, 50, 59, 16, 3, 41, 76, -9, 83, 75, 69, 16, -42, -22, 13, 72, -52, -20, -76, 32, 42, -79, 74, -70, 53, 50, 70, 25, -25, -71, 38, -2, -45, 70, -65, 63, -31, 47, -71, -7, -45, 5, -25, -59, 48, -16, 29, 65, -3, 66, -17, -71, -31, -18, -44, 8, -65, 60, -75, -44, 31, -84, 24, -65, -35, -9, 65, -5, 83, -31, 45, -15, 43, 53, 44, 53, 43, 70, 61, -6, 28, 70, 67, 78, 11, -20, 82, -19, -39, -24, -66, 25, 13, -80, 61, 84, -1, -54, 75, 59, -81, 9, 42, 54, 13, -24, 29, 13, -7, 78, 81, -19, -54, 39, -73, 11, -56, -78, 63, 58, -61, 29, 60, 55, -47, 23, -6, -9, -42, -27, 42, 11, -54, -20, -54, 16, -70, -30, -45, -77, 78, -53, 69, 59, -26, 30, 43, 50, -10, 1, -31, -25, 30, -24, -37, -64, -2, -2, -14, -26, 34, 51, -26, -67, -25, -37, -29, 7, 72, 68, -3, -43, 83, -66, -11, 22, -74, 27, -63, 
  -23, -80, -39, 76, -26, -70, 49, 23, 71, -1, -54, 56, -21, -42, 9, 76, 59, -44, 26, 0, -17, 66, -40, 4, 40, 84, -46, 83, -41, 17, -18, 40, 56, 57, -63, -10, 4, -64, -8, -38, -46, 41, 65, 6, 52, -29, 67, -64, 76, 2, 82, 13, 39, -10, 66, -70, 16, 2, 48, -56, -63, 14, 17, -22, -22, 48, -19, -19, 26, 2, -11, -79, 53, 79, -75, -37, -45, -72, 78, -74, 20, -54, 45, 50, -28, 65, 9, 21, -70, 50, 73, -24, -82, -67, -51, -4, -3, 72, 46, -40, 3, -74, 4, 4, 26, -4, 41, -19, 51, -45, -71, 11, 5, 41, -50, 72, -19, 33, -21, -19, -11, -20, 9, 67, 75, 23, 45, -3, -79, -80, 24, 10, -58, -84, 39, -72, 23, 6, 77, 23, -68, 11, -38, 8, -28, 13, 56, -1, -57, -79, -6, -41, -25, 32, 65, 60, -31, 44, 58, -1, 41, -19, -43, 39, 64, 34, 24, -27, -4, 48, -1, 69, -8, 25, -73, 28, 0, 57, 0, -4, 26, 52, -10, 64, -52, 59, 72, -18, 15, 83, 50, -65, 9, 78, -32, -80, 0, -63, -42, -53, -58, 5, 61, -6, 66, 9, 40, 1, -63, -2, 70, -7, -56, 10, -28, 66, -31, -50, 7, -80, -24, 1, 11, 10, 40, -17, -11, -40, 1, 84, -36, 23, 40, 69, -37, -21, -12, -60, 40, -27, 18, 62, 80, -14, -40, -50, -39, 0, 36, -1, 57, -47, 65, -12, 42, 11, -30, -3, 45, 16, 29, -8, 54, 51, -42, -57, -28, 14, -66, 18, -46, -3, -8, -8, -71, 20, 43, -71, 25, 64, 77, -25, 57, 46, 43, 37, -16, 77, -7, 74, 39, 4, 73, 2, -80, 61, -79, 
  45, -62, -25, -36, -76, 87, 43, -77, 24, 41, -75, 45, -68, 48, -36, 6, -40, 25, -34, -2, -57, 25, 4, -63, 64, 55, -57, 68, 100, -28, 10, -28, 56, 71, -16, 5, 56, 2, -2, 79, 66, 10, 54, -52, -71, -23, -28, 31, 46, -5, 77, -13, -48, -10, -24, 11, -45, 61, 17, -37, -25, 20, 32, -64, -29, -6, 23, -10, -25, -21, 87, -82, 22, -25, 60, -3, 47, -4, -1, -86, 1, 33, -28, -16, -60, -47, -26, -23, 59, 31, 4, 37, 55, -57, 42, 29, 65, 37, -6, -40, -91, 64, 38, 78, 75, 10, -25, 66, -18, -60, -80, -62, 9, 50, 1, 69, 10, 35, 21, -40, 18, 22, -25, 26, 9, -53, -60, -39, 15, -74, 68, 5, 26, -40, -15, -62, -66, 75, -69, 78, 71, -39, 94, 3, 70, 16, -46, 11, 92, -73, -59, 81, 57, 2, 41, -44, -76, 9, -43, 24, 44, -20, -38, -36, -11, 16, 36, 28, -21, -3, 58, -33, 32, 35, -61, 38, 11, -10, 7, -48, -44, 35, -9, -57, -4, -65, -61, -27, 12, -83, -1, 8, 58, 3, -46, -92, 37, 68, 7, 50, -54, 45, -60, -35, 38, -79, 80, -70, -35, 33, 61, 46, -86, -55, 25, -78, 19, -50, -55, 75, -14, -56, 29, 0, 28, 8, -56, 58, 78, -21, -34, 73, -12, -32, 47, 85, 68, 62, -62, 15, -32, -17, -48, -82, -73, -70, -83, 94, 61, -57, 72, -43, -38, -16, -21, -65, -70, 37, 16, -28, 41, 41, -46, 9, -18, -15, 18, 57, 29, 22, -23, 57, 65, 66, -1, 13, -85, -6, -2, -74, -75, -6, -75, 38, -86, -84, -46, -71, -8, -60, 69, -88, -33, -13, 1, -9, -40, 
  -44, -63, -70, -53, -50, -73, -75, 40, -59, 29, -20, -33, 1, 44, -54, -38, -15, -3, -73, -1, 5, 19, 32, 18, 41, -70, 72, -57, -30, 79, -66, -10, -12, -50, -57, 39, 20, 59, -78, 52, -89, -72, 40, 65, -33, 44, -62, -29, 39, -26, 73, -37, 44, 77, 72, 69, 81, 3, -32, 87, 74, -7, 23, 66, 10, -50, -29, 44, -8, 34, -21, 66, -48, 53, -51, 58, -46, 24, -20, 79, 11, 51, 66, 30, -48, -71, 5, 27, 68, -59, 5, -80, 36, 52, 26, 31, 26, -10, 37, -36, 56, 4, -30, 70, -45, 5, 39, -72, -1, -93, -3, 52, -56, -51, 71, -73, -81, -12, 13, 80, 16, -10, -16, -38, -84, 81, 75, 46, 58, 72, 57, 15, -48, -43, 40, -73, 72, 30, 34, -10, 75, 80, -26, -20, -40, -26, 64, 65, 60, 40, -26, 30, -77, -4, 72, -72, -47, -14, -23, -50, 28, 88, -20, 24, 19, 1, 4, 50, 28, 11, -34, -43, 69, 30, 61, -2, -32, 35, -16, -41, 37, 0, 53, 19, -32, -32, 67, 6, -20, -43, 77, 7, 21, -64, 25, -68, -62, 80, 42, 51, -72, -12, -10, 37, -34, 57, 45, 0, 36, -62, -63, -14, 28, 74, 43, -36, -55, -66, -41, 89, 3, -25, 54, 37, -74, 16, 9, -13, 43, 57, -34, -71, 45, 38, -23, -68, 18, 16, 35, 60, -29, -49, 18, -41, 34, -31, -29, -30, 62, -78, -13, -67, 29, 40, -37, 68, 8, -49, -43, -20, -56, -1, -42, -40, 23, 63, -37, -39, 4, 59, 52, -52, -8, 59, -23, 34, -61, -76, -21, 22, -4, -59, -72, 67, -31, -44, 39, -27, 42, -20, 9, 42, 61, -70, -73, 56, 31, 
  74, 27, 9, -24, -5, 27, -75, 17, -23, 75, 80, 53, -83, 60, -73, 20, 65, 47, 65, -45, 34, -48, 41, 62, 82, -68, 79, 48, 87, 34, 9, -51, 49, -74, 50, 55, -35, 12, 41, 74, -10, 87, -9, -69, 59, -28, 76, 4, 76, 41, 51, -84, 65, -5, -74, 82, 11, -13, -17, 36, -10, 50, -11, 67, 73, 86, -32, -11, -30, 80, 64, -32, 29, -35, -15, -9, 55, -51, -16, 85, -77, 69, -23, 43, -71, 85, -62, -51, -41, 0, -62, 30, -26, 5, -25, -73, 23, -57, -65, -33, -44, 15, 73, -18, 11, 54, -27, -16, -2, -38, -54, -22, 62, 88, -82, -50, 57, 2, 73, 28, -61, -16, 44, 72, 45, 46, -31, -75, -15, 54, -37, 21, -37, -50, 67, 37, 89, -31, 26, 34, -38, 19, -74, 42, -20, 76, 80, 53, -32, 70, -78, -38, -25, 42, 83, -42, -17, -19, 10, -61, 12, -56, 74, 81, -61, 21, 6, 76, -30, -7, 47, 14, -21, -67, 40, 0, -8, 50, 11, -4, 41, -72, -62, -30, 13, 37, -70, 37, -66, 60, 14, -33, -81, 76, -64, 49, -19, -58, 9, -19, -11, -6, -47, 34, -67, 13, 17, 79, -66, 37, 49, 88, 9, -78, -37, -4, -14, -73, 53, 78, -36, -24, 7, 17, -61, 65, 35, 71, -14, -32, -73, 33, -7, 56, 5, 88, 27, 80, -52, 45, 31, -60, 41, 0, -75, -26, -38, 19, -54, 69, -21, -7, -17, 15, -21, -50, 7, 0, -44, 5, 22, 17, 10, -78, 53, 5, -2, -18, 59, 10, 34, -43, 9, -77, -36, -16, -58, -10, 67, 40, 10, 25, -73, -30, 68, -83, -29, 37, -29, 13, 44, 2, 38, 67, -35, 38, -23, 
  81, 24, -51, -41, -53, 9, 77, -43, -65, 65, -35, 11, 49, 6, 66, 58, -64, 45, -70, 33, -77, -64, 5, 16, 33, -35, 6, -27, -10, 83, 37, -84, -36, 77, 29, 2, 54, -36, 42, 35, -48, -57, 24, 4, -38, -14, 55, 17, -77, -64, -60, -11, -81, -31, -71, -28, -17, 66, 1, -1, 49, 13, -17, -34, -6, 54, -26, 49, 76, 38, -11, -64, 66, 84, 56, -65, 26, 82, -40, 76, 77, -13, -62, 77, 84, 11, 79, -53, 47, 56, 43, -45, -57, 80, 38, 27, -53, -77, -50, 6, 67, -14, 31, 3, 42, 64, 0, 42, 41, 74, -34, 56, 36, 76, -42, -9, 39, 1, -40, -49, -5, -75, -16, -2, -58, 26, 17, 33, 58, -72, -2, -58, 35, -69, 30, 48, -3, 10, -25, 60, -64, 59, 16, 62, -57, 30, -48, 55, 72, -27, -64, -23, -78, -65, 69, 37, -68, -68, 3, 56, -34, 47, -70, 57, -69, 29, -83, 59, 70, 16, -78, -20, -48, -63, 61, 25, 42, 38, -61, -13, -34, -9, 63, 16, 47, 30, -23, 75, 51, -58, -55, -59, 18, -77, 44, 12, -76, -13, 49, 35, 58, 84, -26, 71, 68, -71, 19, 30, 84, -56, 82, 46, 30, -16, -13, -70, 60, 82, -38, -44, 22, -58, -32, 62, 19, -40, 74, 39, 65, -59, -52, 66, 28, 53, -40, -10, -58, 60, 48, -42, -39, -72, 12, -11, -19, 79, 31, -74, -75, 62, 77, -38, -78, -51, 49, 30, -42, 64, -6, -85, -46, -1, -8, -81, 55, -33, -81, 48, 55, -38, 20, -64, -48, -24, 1, 54, 53, 14, 72, 14, 3, 74, 75, 77, 80, -25, -65, 34, 53, 78, 65, 2, -75, 65, -35, -38, -2, 
  38, -2, -63, -35, -46, 1, 63, -21, 78, 18, 43, -57, -29, 56, 43, -64, 23, -22, 61, -19, 75, 24, 61, -59, -46, -48, 31, 59, 49, 30, 19, -49, 5, 13, 43, 76, -56, 46, -65, 36, 53, -50, 77, 69, 70, -81, 72, 79, 59, 59, 74, -31, 19, -50, 3, 87, -33, 14, 45, -1, 0, 29, 74, -56, 39, 26, 72, -7, -52, -51, 49, 76, 29, -9, -32, -8, 3, -78, 86, 11, 57, -1, -52, -32, -13, 37, 56, -47, 24, 41, -54, 84, -17, -30, 61, -12, -20, 57, 24, 85, 10, 0, -2, 47, -19, 23, -45, -90, -5, -92, 53, 67, 4, -29, 31, 13, 64, 45, -52, -33, -86, -24, 42, 13, 95, -31, 44, -14, 2, -41, 82, 43, -33, -33, 47, -28, 76, 86, -68, 90, 78, 3, 55, -27, -8, -54, -72, -26, -17, 65, -54, 70, 85, 49, -11, -61, -37, -4, 37, -10, -60, 54, 68, -59, 78, -33, 30, 70, 78, -19, 2, 53, -37, -78, 2, 22, 50, 57, 26, -1, 9, -54, 28, -77, -43, -32, -9, 73, 19, -84, 40, 67, -38, -49, -66, -36, -65, -2, 27, -71, -78, -16, -34, -53, -78, 49, 55, 21, 53, -66, -7, 99, -30, -85, 127, 1, 57, 67, -34, 80, -40, 88, -69, 35, -4, -71, -1, 95, -32, -30, 86, -68, -3, -55, 18, 30, -73, -51, 54, -15, -18, -19, 71, -42, 116, 86, -27, -28, 35, 9, -32, 92, -58, 81, 75, 3, 94, -59, -41, -19, -94, -22, 8, -14, -32, 46, 8, 82, -15, -56, -9, -57, 3, 79, -55, 38, 39, -66, -51, 40, -20, -53, 32, -54, 23, 70, 43, 18, 57, -40, 82, -6, 33, 63, 42, -9, 7, 
  16, -27, -45, -17, -78, 72, 62, 20, 15, -19, 72, -60, 64, -28, 68, 23, 21, 52, -4, -47, 14, 36, 71, 49, -56, 71, -44, -9, 30, 80, 58, -57, -12, -15, -27, 10, -53, -24, -12, 72, -5, -12, 27, 14, 81, -52, 53, 7, 50, 13, -52, 58, -69, 74, 52, 71, 58, 67, 68, -23, -47, 70, 72, 28, -78, -65, -57, -20, -79, -67, -14, 56, 2, 69, 77, 37, -56, 11, -14, -62, 8, 65, 39, -7, 49, 65, -54, 33, 61, 41, 47, 80, 34, 16, -52, 20, 72, 46, -13, -54, 9, -2, 60, 3, -65, 76, 79, -3, 10, -3, -17, 53, 10, -9, -13, 69, 66, -5, -56, 36, -69, 33, -75, 70, 8, -69, 72, 44, -5, -48, 70, 44, 1, -75, 7, -5, 15, -55, -38, -46, -4, 24, 74, -4, -2, -31, 36, 68, -12, 73, 44, -13, 30, 81, 37, 20, 57, -78, 15, -28, 37, 43, -22, -59, -10, 29, -36, 34, 35, -78, -64, 34, 68, 28, 68, -39, -82, -43, -37, -44, -51, -21, -34, 18, 48, -53, 49, 73, -76, -48, -13, 57, 77, 75, -78, -42, -10, -6, 38, -58, 38, -77, -71, 74, 70, 18, -59, -22, -45, -65, -22, 79, 1, -7, -67, 0, 16, 52, 15, -58, -14, 82, 63, 55, -55, 55, -81, 72, 0, -3, 35, -77, -52, -2, -77, -73, 57, 35, -49, -62, 67, 59, -26, 70, -2, -82, 25, 39, 56, 7, -71, 45, 24, 64, 77, 34, 73, -76, -46, 3, 81, 72, 30, -10, 36, -26, -14, 3, 28, 33, 49, -13, -27, 48, -61, 54, 60, 78, 54, 55, 9, 80, 12, -38, 10, 37, -55, -13, 82, -84, -8, -20, 49, 41, 74, 50, 70, 
  -66, -9, 76, 2, -13, 11, -41, 17, -18, 25, 63, -1, 12, -28, -35, 67, 37, 41, 69, -69, -55, -20, -8, 42, 58, 40, -48, -26, -12, -11, 57, -78, 32, 57, -85, -16, 25, 4, -44, -74, 73, 25, 82, -77, -52, -52, -53, 39, 8, 53, 68, 44, -50, 52, -46, 26, 77, -50, 32, 8, 48, -40, 75, -31, 15, -8, -71, 10, 50, 37, 6, -6, -79, -54, -40, -52, -6, -71, 29, 36, -84, -64, 73, -9, 42, 36, -26, 76, -14, 45, 26, 82, -44, -75, 38, 5, -32, -50, 72, -13, 0, 67, 42, -54, -54, -22, 41, 79, 78, 5, 60, 25, 78, 47, -50, -4, 27, -36, -34, 14, 37, 32, 26, -2, -75, -21, -44, -58, -34, 13, 46, -28, 80, -41, 30, 32, -52, -16, 45, -70, 62, 21, 48, -30, -64, 55, 24, -62, -10, -37, -17, -54, 77, 37, -49, -72, 36, -1, -30, -51, 35, -62, 45, 80, 40, 63, 21, -69, 86, 77, -7, 7, 6, 24, -43, -72, 70, -61, -21, 66, 48, -53, -56, -74, -21, 22, 23, 44, -39, -43, 15, -4, 76, -53, 74, 42, -39, 57, 24, 57, 40, 19, -49, -40, -57, 0, -82, -50, -46, 78, -59, -16, -17, 47, 44, -10, -47, -75, -72, -75, -73, -52, -80, -33, -10, 84, 69, 40, -69, 51, -3, 14, 3, -86, -2, 1, 9, 21, 78, -70, 75, 26, 4, 55, 13, -12, 59, 1, 9, 80, 74, -62, 63, -67, 13, -52, -51, -3, 20, -7, 48, -1, -3, 80, 29, -69, 6, 78, 68, -73, 64, -27, 27, 49, 35, -59, -3, -26, 46, -75, 42, 20, -39, -7, 69, -34, -56, 5, 79, 50, -71, 8, 35, 74, -68, 20, -82, 
  47, 30, -34, 13, -62, -35, 79, 44, -12, 53, 69, 9, 20, 32, 65, -72, 27, 48, -19, 84, -86, 29, -41, -53, 20, 27, -29, -61, 48, -71, 26, 73, 82, -34, -25, 41, 35, 3, 12, 66, -18, -27, 53, -6, 7, 83, 56, 10, -41, -51, 62, -84, -54, 0, -28, -10, 73, -34, -44, -3, -72, -29, -40, -46, -6, -34, -18, -81, -18, 83, 19, -89, -63, 31, -9, -60, -48, -82, 19, 8, 34, 42, 81, 28, -43, 8, 44, 75, 20, 53, -72, -42, 32, 30, 62, 48, -16, 89, 11, 51, 90, 77, -37, 94, 42, -50, 16, -30, 47, 108, -80, 74, 31, 14, -31, -41, 18, -43, 17, 22, 13, -34, 57, 30, -72, -5, -81, 72, 84, -62, -83, 64, 71, -26, -75, -82, -61, -78, 28, -40, 33, -39, -57, 52, -71, 89, 50, 9, -30, -25, -56, 43, -85, 38, 37, 39, 82, -46, -73, 50, -5, 40, 14, -44, 33, -47, -2, -8, 78, 66, 13, -5, -67, -24, -72, 1, 0, -30, 20, 75, -15, 95, 71, -3, -42, 56, 55, 65, 77, -56, -4, 22, 73, 74, 18, 57, -51, -68, -66, 66, -23, -11, -12, 11, -62, 72, 71, 44, -23, 83, -75, 90, -17, 66, 67, 5, -34, -19, -30, 18, -80, -37, -56, 30, -46, -25, -79, -70, -2, -54, 57, -77, -44, -87, -71, 85, 38, -83, 8, -54, 79, 28, -2, 84, -26, -12, 19, -47, -33, 35, -56, 10, -85, -42, -24, 65, -48, -29, 43, 76, 58, -33, 22, -36, -38, -87, -39, -72, 1, 52, -9, 61, -29, -84, 96, -6, -75, 68, 72, -72, -82, -29, -41, -38, -55, -7, 87, 22, -25, -15, -17, 30, -21, 73, -9, 49, -53, 
  60, 25, 73, 25, -20, 60, -21, -5, -66, 65, 1, -72, -19, 71, 30, 66, 44, -75, 27, -5, 59, 51, -2, 17, -26, 77, -33, -73, 22, 67, 61, -1, -17, -66, 57, 67, -80, 17, 13, -13, -8, -27, 57, 31, -22, 59, -61, -38, 5, 57, -8, 48, 1, 4, -32, 50, -9, -72, -42, 5, -34, 25, 13, 25, 52, -24, 10, 35, 39, 25, -57, -49, -12, -75, -82, -57, 11, -72, -49, 16, -1, -57, 38, 4, -53, 70, 63, 31, -72, 81, 18, -76, -70, 30, 9, 24, -5, 4, 53, -62, -19, -61, -10, -12, -75, -81, 84, -46, -71, -41, -41, -12, 32, -76, 48, -10, 26, 47, 51, -50, 26, -24, -63, 36, -49, -5, 25, 40, -19, 67, -79, -11, -24, -32, 10, 59, -76, 83, -36, -19, 2, -70, -17, -33, -62, 46, 66, 22, -32, -61, 76, 29, 33, -2, -80, -73, 84, -68, 5, 21, 19, 28, 39, -60, 78, -33, 33, 26, -16, 42, 62, -77, -50, 36, 52, 83, 38, -58, 11, 11, 83, -28, -68, -58, -40, -33, 49, -67, 39, 43, 65, -43, 70, -73, 41, 48, -64, 84, -53, 72, -44, -4, -1, -37, 44, 14, 86, -80, -33, 39, 22, 86, 74, 39, 62, 38, 38, 34, 46, -77, -7, -29, -19, 87, 23, 52, -61, 32, 70, -4, 7, -58, -19, 54, 67, -6, -44, -71, -76, 43, -5, 8, 16, 0, 77, -57, 87, -2, 34, 85, 56, 41, 35, -49, 77, 55, 19, 36, -5, 29, 58, 74, -37, 54, 0, -35, -41, -27, -2, -25, 12, 23, -33, 72, -1, 58, 39, -67, 18, -19, -29, 65, -41, -40, -58, 6, -77, -26, 35, -76, -47, -79, -31, 32, 85, -63, -18, 
  20, 22, 69, -53, -53, -72, 70, 19, 22, 69, -48, 51, 7, 40, 63, -51, 56, 41, -69, -6, -63, 63, 4, -33, 29, -59, -9, 60, -13, 20, 51, -14, -3, -78, 17, -47, -63, -21, 56, 51, -84, -59, 26, -72, -46, -49, -24, -39, -53, -54, 75, -22, 34, -2, 51, -81, 62, -77, 29, -6, 55, -15, 7, 56, -69, 32, -44, -41, -59, 41, 58, 74, 38, 45, 18, 14, -18, 79, -16, 63, 59, 8, 73, -42, 73, 7, 80, -30, -14, 77, 76, 21, -18, -20, -25, -14, -39, -62, 29, -46, 34, 47, -18, 33, 42, 37, 49, 21, -84, 62, 31, 34, -2, 7, 38, -76, 50, -20, 33, 20, 50, -41, -74, -57, 32, 23, -10, 75, -15, -14, 76, -25, 15, -39, 62, -38, 3, -65, -61, -8, -11, -63, 72, 4, 81, 20, 77, -27, -2, -17, -8, -55, 6, -13, -20, 14, -67, -44, -53, 50, -11, -54, 7, 43, 36, 53, 6, -72, -9, -9, -58, -73, -39, 10, -62, 14, -65, 20, 51, -69, 34, 21, 47, -11, -52, 24, 68, -19, 62, -30, -7, -31, 77, 44, -50, -51, -64, -56, 46, -45, 71, 72, -51, -42, -2, 72, 7, 19, -60, -43, 32, 43, 20, 42, 61, -54, 79, 46, -40, -77, -59, 80, 2, 83, 33, -63, -9, 1, 46, 13, -36, -31, 31, 4, 76, -16, 24, 45, -42, -12, 32, 45, -31, 62, -45, -68, -81, -8, 44, 56, -72, 78, 40, -8, 35, 80, -60, 70, -52, -12, 40, 69, -33, -69, -62, -77, -58, -16, -66, 17, -46, 0, 73, 54, 3, -37, -47, 21, -1, 32, 74, -75, -56, -50, 36, 41, 57, -8, 78, 23, -68, -27, 62, 76, -17, -39, -39, 
  -80, 45, -42, 15, 8, -30, 35, -79, 2, -74, -72, 43, -77, 33, -51, 59, -60, -6, -74, 2, -46, -45, -46, -6, 39, 0, -35, -47, 52, 74, -41, -15, 3, 6, -1, 13, 35, -45, 49, 65, -71, 74, 68, 40, 28, 72, 68, -77, 33, 62, -12, 62, -3, 33, 44, 80, 66, 8, -10, -20, -66, -75, -7, 21, -5, -3, -37, -15, 83, -7, 57, 67, 11, 64, -63, 0, 9, 62, -12, 42, 60, 77, -36, 49, -6, 73, -23, -27, 48, 31, 40, 83, 44, 75, 31, -52, 6, -29, -46, 71, -72, 47, 12, 33, 73, 77, 5, -16, -64, 51, -23, 23, -15, -54, -49, 66, 63, -10, -81, -34, 41, 12, 34, -37, -72, -33, 69, 37, 44, 19, -57, -27, 7, -50, -79, -73, -31, -74, 76, -66, -7, -74, 25, 83, 12, -80, 34, 46, 62, 52, 31, -41, -57, 25, -30, 15, -17, 8, -71, -46, 42, 51, -56, -18, 1, 21, -75, 16, -48, -69, 36, 9, 88, -71, -30, 60, -82, 30, -8, 10, 8, -77, 29, -81, -1, -64, 44, 54, -59, 41, -7, 5, -68, 80, -10, 3, 55, -81, -37, 16, 34, 29, -21, -50, 43, 85, 69, -53, -78, -15, 10, -19, -4, 68, 66, 15, -71, -57, 73, -62, -53, 72, 80, -54, 17, 64, -54, 52, 30, -19, 73, 23, -74, 66, 57, -25, 26, -44, -48, -51, 76, 3, -57, -77, -76, 40, 68, 64, -61, -35, -78, -82, 70, 61, -63, 58, 15, 19, 31, -40, 42, -41, 41, -32, -8, 5, -24, 36, -1, 71, 39, -20, 77, 72, 8, -78, 33, -31, 16, -63, 33, 29, 7, 63, 86, 63, 6, -21, 57, -26, -5, -7, 20, 38, 51, 81, -7, 
  85, 45, 68, 47, -30, -65, 30, -11, -80, 66, 5, 45, -40, -38, 39, 54, 2, -47, 13, -39, -42, -55, 75, 69, 57, 44, 55, -50, -55, 49, -3, -43, -7, 63, 79, -57, -79, -67, -55, 43, 70, 72, -78, 70, -10, -31, 8, 57, -61, 2, -21, 65, -64, -26, 85, 50, 77, 18, -72, -40, 45, -40, -55, -60, 8, -13, 12, -44, -23, 1, -44, -77, -61, 7, 22, 4, 27, -31, -68, -66, -66, 1, -54, -24, -5, 16, 28, 54, 79, 43, -31, 54, 81, 40, 60, -39, 18, -77, -24, 7, -37, -12, 1, -45, 58, -31, 76, -50, -60, -14, 14, -30, 44, 14, 83, -32, 50, 40, -59, 71, 1, 35, 77, -34, -62, -39, -53, -38, 56, 49, -75, -1, -55, 37, 81, -68, 62, 28, 3, -26, -71, 42, 9, 36, 45, 26, -16, -9, -50, 70, -74, 67, 77, -30, -21, 59, 85, -80, -33, 40, -9, -18, 69, 32, -6, -48, -77, 68, -37, 33, -20, 46, -4, -51, -38, -73, 62, 56, -70, -19, 22, 31, -60, -56, -44, -47, 85, 37, -53, -31, -22, -7, -35, -52, -13, -35, 31, 28, -54, -53, -56, 16, 38, -47, 20, -70, 70, -69, -69, -28, 19, 63, 37, 47, -53, 2, 3, -15, -35, 30, 17, 21, 27, 2, 65, -56, 43, 38, 73, 44, -67, -37, 65, 45, 53, 51, -77, 87, 72, 61, -47, -56, -28, 69, -20, -22, -24, 9, -10, -56, -49, 35, 80, 8, -54, 74, 16, -6, -20, -75, 46, 58, -74, 29, 72, 40, 78, 65, -60, 78, 28, -26, -18, 78, -45, 21, 83, -5, 52, -24, 43, 26, -21, -34, 8, 75, 28, -53, -76, 42, -24, 27, 72, 77, 45, -7, -49, 
  76, -55, -19, -45, -21, -22, -10, -13, -73, 41, 6, 18, 22, -30, 32, -60, 33, 79, -40, -49, 80, 80, -86, -55, -27, 18, -41, 87, 26, 21, -10, -70, -25, -13, -33, 5, 51, -29, -38, -13, 70, 10, 30, -29, 7, 63, -61, 42, 44, 33, -45, -11, -71, -66, 52, -13, -43, 1, 54, 77, 45, -34, -4, 61, -81, 29, 43, 78, -57, 43, 46, 39, 85, 25, 1, 27, 67, -36, 52, 35, -14, -16, 39, 10, 9, 25, -71, -4, 65, 30, -69, 69, -17, 75, 65, -39, -3, -61, 27, 51, -32, 1, 43, -41, -55, 45, -74, 31, -38, 59, 57, 51, -57, 2, -77, 76, 29, 10, 7, 45, -14, 42, 49, -25, 73, 28, -25, -60, -33, 4, 75, -52, 1, -26, 62, 46, -70, -23, 61, -34, 70, -48, -74, -78, -26, 13, 74, -79, -64, -81, -54, 10, -15, -7, -16, 44, -39, -20, -19, -47, -76, -9, -19, -7, -47, 72, 15, -66, 80, 64, 71, 31, -58, 80, 21, -55, 39, -53, 10, -34, -27, 0, 65, 36, 27, -59, -34, -42, -76, 68, 49, 41, 12, -18, -9, -46, 22, 27, 28, -56, 29, -77, 46, -7, 3, -5, -35, 22, 9, 57, 19, 72, 47, -34, -38, -3, 0, 46, 39, -72, -56, 62, -47, -3, -80, -5, 60, 74, -56, 21, 62, 29, 71, 55, 72, 44, -18, -31, 41, 11, 13, 19, -77, 10, -47, 11, 44, 29, -87, 8, 8, -81, 56, -32, -15, 40, -18, -5, 13, 20, -42, -71, 72, 12, 3, -41, -87, 48, -28, -84, 13, -21, 3, -10, -71, -11, -35, -22, 32, 66, -65, -44, 80, 73, -15, -55, -56, -4, 9, 30, 49, 56, -13, 22, -39, 49, -22, 
  6, -5, 35, -44, -27, -63, 34, -22, -40, 65, 32, -51, 0, 26, -37, -61, -40, -41, -27, 81, 19, 13, 85, -51, -62, 60, 78, 58, 20, 30, -81, 21, 15, 23, -62, 8, -7, -57, -45, 31, 49, -22, 5, 30, 20, 70, -50, -46, 12, 43, -13, 57, -23, 18, -52, 59, -7, -62, 81, -33, -75, -63, 53, 40, -23, -83, -28, 16, 32, -26, 2, -24, 72, 61, -35, -79, 44, -41, 42, -79, -69, 1, 13, 77, 35, 48, 83, 83, 69, 27, 57, 82, -75, -16, 2, -57, -23, -5, -37, 49, -58, -2, 7, 17, 82, -65, -74, 8, -51, -39, -32, 33, 43, 1, -67, -31, -14, 29, -49, -84, -25, 16, -61, -86, 43, 25, -6, 71, 16, -83, -44, -2, 57, 23, 39, 10, 17, -34, 53, 14, 8, -80, 76, 9, 12, 27, -29, -13, -12, 1, -48, 1, -62, -29, 86, -36, 72, -33, -10, 15, -13, 30, 77, -34, -79, -72, 68, 48, 63, 26, 63, 73, 77, -32, 3, 32, -15, 47, -47, 64, -30, 70, 43, -40, 42, 1, 9, -66, 16, -24, 73, -14, 11, -65, 19, -68, -75, -17, 18, 54, -47, 10, -38, 50, -72, -58, -76, -77, 37, 31, 42, -34, -8, -20, 74, -76, 80, 45, 21, 77, -8, -71, -52, 70, -60, -15, 10, -84, -72, -56, -68, -13, 62, -54, -41, 8, -57, 21, 77, 57, -13, -3, -10, -23, 92, 42, -45, 86, 17, 35, -8, 44, 83, 53, 24, -5, 48, 66, 27, 12, -8, -1, -48, 26, 55, 15, -69, 18, -64, 5, 41, 61, 35, 59, 66, 36, 60, -40, 76, 63, 24, 21, 22, -34, 18, 22, 19, 71, -64, 68, 71, 49, -59, -51, 67, 16, 14, 
  -18, 10, -65, -5, 27, 42, -27, 53, 1, 59, -53, 2, -22, 59, -4, -78, -37, -64, -63, 63, -43, -22, 46, -40, -30, 15, -15, 71, 6, 23, 66, -8, -80, 70, 66, 41, 10, 55, 79, -49, 41, -65, 41, 27, 36, 34, 10, 23, 71, -60, -69, -75, -74, -29, -74, 11, -7, 6, 31, 0, 62, 1, -18, 52, 22, -38, 20, 15, -67, -71, -74, 26, 80, -54, 57, 15, -61, 70, -5, -70, -30, 8, -79, -38, 78, 15, 70, -8, -95, 72, -8, -49, -50, 81, 22, 81, -14, -60, -45, -17, 13, -60, -44, 42, -57, 17, -89, -85, -70, -28, -41, -33, 58, 31, -57, -80, -36, 80, 71, -60, 75, -3, 39, -33, -14, -38, -40, -31, 36, 77, 56, 19, -69, -68, 66, -29, -48, -67, -30, -77, 10, -36, 0, -58, 57, -42, 69, 59, 52, 6, 10, -37, 58, -42, 21, -31, -7, -80, -50, 29, 44, -30, -41, -60, -4, -76, 11, -85, -27, 73, -25, -59, 69, -22, 13, 35, -79, -85, -9, -65, 70, 1, -47, -6, 44, -65, -8, -75, 87, -48, 1, -63, 23, -15, 63, -20, -91, 37, -70, 1, -22, 74, 59, 34, 7, -87, -23, 21, -65, -12, -62, -12, -46, 9, -1, -34, -46, -89, -16, -22, 38, 50, -63, 3, -66, 47, -80, 11, 78, -46, -13, -49, 57, -5, -20, -80, -71, -19, 20, -5, 73, 21, -63, -13, -40, -61, 72, -48, 66, -30, -33, -20, -14, -62, -23, -78, 71, 19, 1, -70, 40, -33, -32, 0, 29, -69, 79, 57, 67, 61, 70, -70, -85, -62, -53, -9, 37, 13, -27, 27, 62, -76, -63, 12, 74, -77, 24, 43, 69, 8, -37, -68, -72, -85, 64, 4, 47, 
  37, 0, 38, 59, -35, -61, 85, -34, -24, 20, 87, -67, 44, 21, -31, 27, -44, -3, -1, 18, -10, 38, 62, -51, 26, -69, -47, -58, 66, 11, 43, 78, 33, -39, 18, 87, 78, 11, 64, 48, 6, 50, 4, -46, 79, -25, -14, -54, 3, 69, 10, 40, 42, 35, -49, -49, -13, -48, -80, 32, 48, -19, -69, 21, 100, -12, 58, -10, -72, -28, -78, -45, 16, -4, 39, -48, -54, -45, -8, 80, -38, -29, -69, 69, -60, -64, -25, 60, -37, 81, 85, 59, 67, -7, -64, -62, -28, -82, 70, 76, 93, -80, 35, 81, 62, 83, -20, -11, 70, 12, 29, 55, 57, -1, -75, 91, 24, -55, 59, -3, 8, 79, -45, 14, -18, 33, -68, 101, 72, -82, -23, 25, -48, -29, 85, 5, 55, -62, -9, -56, -30, -57, 0, 39, -24, 72, -51, -28, 17, 40, -44, 60, -56, -67, -67, -84, 83, -101, -83, -40, 51, 33, 44, -90, 79, 0, -17, 32, -69, 17, 26, -64, 32, -42, 63, 59, 37, -6, 63, 59, -72, -32, -2, -7, -59, 21, 57, 82, 0, -23, -22, -82, -1, -103, -25, 31, 67, 87, -54, 60, -15, -78, 54, 10, -51, 62, -23, -11, 2, -52, 12, 73, 71, -43, 85, 76, -27, 54, 37, 28, 69, 85, -70, -47, 21, 56, 21, -49, -26, -33, -62, -73, 84, -81, -55, -30, 15, 87, 86, -31, 62, -22, -11, 3, 31, 32, -71, -49, 80, 17, -12, -7, 67, 64, 35, -75, 7, 67, 85, -1, -73, -19, 40, 15, -21, -25, 67, -57, -48, 68, 84, 42, -66, 9, 15, 61, 59, 37, 22, 57, 67, 23, 40, -70, -61, -13, 29, -73, 75, -79, 63, 21, -60, 22, -59, -26, 72, 
  -46, 4, -56, 8, -72, 51, 2, 78, 18, -79, -37, -64, 66, 37, 44, 25, 45, 65, 25, 7, -43, -42, -17, 42, 30, -3, -62, -38, 23, 68, 41, -22, -19, -78, -52, 71, 10, 54, -3, -20, -14, 38, 76, 3, 55, -62, -76, 75, 18, -25, -27, -19, 0, 66, 23, 17, -65, 88, -72, -51, 29, 6, 29, 84, -68, 16, 88, 22, -43, 8, -4, -20, -29, 20, 31, 87, -10, -68, 61, 29, 12, -46, -76, 36, -2, -9, -3, 60, 35, -21, -71, 56, -63, -59, 70, -11, 4, -73, -20, 47, -27, -76, -12, -53, 73, 88, -40, 53, -50, -64, -28, -68, -50, 12, -35, 20, 18, -46, -51, 74, 37, 55, -83, -16, -81, -9, 15, 49, 18, -1, -72, 70, 77, 40, -11, -2, 26, 0, 38, 58, -35, 47, -15, 13, -68, 66, 26, 69, 23, 2, -24, -74, 81, -1, -48, -20, -33, -35, -11, -37, -78, -79, -19, -19, 85, -43, 12, 69, 67, -19, -49, 69, 16, -25, -21, 73, -30, -56, 17, 84, -27, 27, -14, 36, -44, 67, -62, -36, -7, -48, -63, -9, 14, -46, 59, 9, -47, -47, -51, 4, 72, 39, 85, -46, 6, -69, -56, 82, 7, 67, 31, 48, -35, 53, -8, -63, -70, -71, 74, 2, -51, 70, -56, 75, 34, 17, -77, -58, -57, 43, 79, 23, 1, 63, 23, 81, 8, -37, -57, 65, -79, 84, 74, 38, 12, -35, 48, -63, 3, -5, 21, -36, 38, 43, 38, -18, -38, -39, 51, 85, -61, -20, 19, 84, 33, -41, 62, 66, 30, -54, 58, -55, -5, -38, 7, 73, -60, 76, 38, 79, 15, -23, 75, 61, -73, 32, 51, 17, -24, -15, -44, 75, 30, -81, 12, 41, 6, 
  5, -59, 66, -28, -21, -16, -64, 23, -3, 53, -6, 14, -25, -81, 73, 24, 21, -11, -51, 57, 70, 34, -53, 44, -6, -1, -35, 39, 76, -5, 35, 41, 53, 56, 28, 35, 8, -72, 2, -31, -20, -18, 18, 23, 65, -62, 1, 82, -38, -4, 66, -73, 54, 55, -14, -40, 34, -52, 51, 76, 64, -57, -23, -9, 69, -53, -49, -37, 67, 68, 37, 45, 3, -16, -13, -20, -38, 22, 26, 30, 12, -71, 3, 71, 67, 11, 36, -51, 69, 69, 2, 37, -39, -25, -64, 14, 70, -47, -37, 39, 6, -2, -47, -80, 69, -33, 59, 70, 36, -34, -27, 15, 9, -67, -21, -1, -17, 44, 52, -33, -46, -14, -28, 58, 35, 49, -36, 49, -47, -12, -19, 22, 69, -18, -39, 75, 25, 8, 29, 84, 23, 69, -45, -70, -43, -23, -66, 34, 12, -79, -26, 77, 36, -43, -47, -27, -71, -61, -20, 49, -45, -30, -37, -54, -18, 72, 66, 19, -74, -43, 41, 42, -4, -78, 9, -23, 77, -67, -32, 57, 32, 57, -79, 11, 58, -82, 19, 16, -71, -59, 21, 76, 51, -7, 47, 77, -78, 72, 73, 35, -7, -75, 82, -45, 13, -4, -70, -24, -49, -48, -59, 85, -17, -48, -8, 1, -71, 1, -71, -71, -20, -62, -60, 75, -26, 25, -76, 12, -72, 66, -43, 65, 12, -64, -57, -36, -45, -5, 12, 86, 59, 18, 57, 32, -46, 13, 87, 45, 28, 73, -71, -3, -77, -64, 68, 84, 25, -58, 84, 62, 39, 43, -31, 38, 74, 8, 61, -70, -54, -55, -46, -4, -4, 56, 15, 51, 72, 5, -75, -62, 74, -60, 79, 10, 52, -73, -36, -46, 45, -65, -17, 58, -26, 66, -39, 37, -60, 
  -63, 71, -55, 22, -70, -57, -12, -19, -64, -43, -27, 68, 19, 80, -54, 15, 15, -24, 37, -61, 21, -60, -9, -81, 28, -47, 78, -19, 47, 4, 75, 1, 45, -74, -44, -22, 72, 68, -33, -81, 74, -28, 29, 43, -33, 29, -79, 22, 70, 87, 24, -79, 53, 5, 4, 28, 31, 0, -26, 54, 80, 24, 21, 35, -68, 58, -34, 80, 75, -13, -35, 80, 40, 67, -73, -50, 14, 82, -80, -78, 83, 28, -17, -11, 40, -67, 41, -78, -55, -27, -76, 51, 50, -62, -74, 65, -30, 8, -15, 5, -52, -36, 51, -76, -33, -61, -2, 13, -5, -57, 3, -18, 29, -49, -48, 44, -5, 5, -3, 84, -51, 35, -36, 27, 23, -28, -50, -6, 56, -29, -6, 74, 11, -45, 51, 62, -30, -81, 5, -49, 71, 75, 23, 27, 7, 51, 53, -23, -71, 33, -57, -5, 11, 61, -64, 1, 6, -32, 21, -25, 9, -41, 59, -60, -31, -60, 34, 86, -72, -5, 1, 82, 15, 7, -38, -33, 79, -19, 37, -44, -19, -34, 56, 47, 83, 1, -4, 9, 33, 70, 30, 14, -53, -82, -8, 65, -37, -35, -68, -55, 25, 11, 3, -66, -57, -53, 37, -67, 30, 46, 65, -15, 73, -66, -10, 50, 27, 23, -77, 19, -19, 65, 6, 79, 5, 82, 33, 58, 8, 69, 57, 60, -17, 38, 39, -12, 76, 6, 84, -61, 84, -60, -4, 23, -35, 46, -38, 65, -31, 12, 46, 80, -53, -66, 1, 29, -7, -1, -74, 80, 22, -72, -65, 38, 10, -73, 47, -42, 73, 39, 84, -3, -8, 36, -54, 1, -61, -81, 14, -39, 12, 3, -66, -13, -80, 17, 48, 39, 74, -2, 63, 44, -49, -50, 15, 0, -58, 
  -66, -20, -17, -27, 47, 63, 15, -8, -48, 52, -51, 58, -12, 68, -35, 35, 72, -35, 23, -51, -51, -53, 8, 46, -15, -29, -38, -78, -58, 5, 17, -22, -65, 40, -74, -56, -51, 67, -32, 49, -52, -38, -45, -17, 59, 30, -42, 14, 34, -9, -44, -39, -44, 24, 28, 0, 61, -37, -9, -57, 72, -1, -69, 26, 58, 51, 59, 18, -40, 84, 52, 20, 78, -36, -71, 3, 62, 33, 34, -49, -54, 80, 12, -84, 35, 28, 52, 56, 23, -25, -41, -25, 3, 71, -32, 82, 64, 57, 15, -51, 1, -49, 34, 59, -10, 24, -37, -31, 54, -21, 23, 42, 59, -54, -27, -36, -2, 51, -29, -28, -18, -33, -69, 39, 51, 36, -11, 74, 64, 71, 25, -13, -30, -7, 3, 3, 68, 7, 51, 23, -59, 70, -70, -30, 11, -12, 52, 78, -35, -35, -71, 37, 38, 1, -60, 27, -5, 73, 80, -16, 34, -83, 25, 83, -14, -8, -80, 36, -2, 47, 62, 31, -32, -59, 81, 9, -25, -6, -65, -72, -53, 11, 64, -73, -52, -39, 73, 35, -39, -55, -84, 15, 37, 43, -42, 73, 6, -44, 63, 11, -58, -66, -76, -19, 60, -36, -10, -43, -79, 67, -65, 28, 79, 1, -64, 81, 17, 61, 57, -84, -41, -34, -74, 36, -35, -64, 0, 41, 82, -65, 74, 31, -3, -9, 25, 58, -11, -69, -55, -23, -2, -23, -46, 44, 73, 16, -5, -61, 49, 72, -63, 48, 81, 42, 19, -20, 77, -43, -71, -59, 72, 29, 4, 39, -19, -44, -3, -17, 21, -23, 4, -10, 16, 44, -10, -57, -45, -24, 76, 30, 55, -23, -82, -21, 68, -51, 21, -30, 80, -49, 72, 24, -28, -35, -19, -6, -82, 
  -49, 10, -53, -69, 73, 4, 32, 94, 84, -77, 1, 13, -47, 50, -20, 63, -38, 51, -11, 20, -22, 0, 25, -66, 45, 74, 79, 54, 37, 25, 82, 9, 46, -12, 57, 87, 60, -53, -49, -7, -14, 25, -19, -51, -1, 72, -63, -62, -70, 57, -52, -9, 30, 58, 24, 3, 61, 28, 73, 87, -14, 5, -74, 84, 88, -70, 12, 63, 60, 13, -66, 76, -84, -73, -24, -51, 42, -56, -7, 21, -27, -19, 20, -35, 45, 31, -14, 63, -10, 52, 42, 59, -33, -48, -2, 3, -58, -43, -48, 56, -50, 42, -82, 75, -53, 80, -26, 11, -29, 86, -34, -60, -47, -80, 12, -63, 51, 50, 41, -56, 35, 28, 39, -79, -42, -65, -10, -55, 74, -62, -42, -39, -58, -66, 96, -44, 3, -17, 0, -72, 79, -8, -49, -50, -79, -13, -72, -80, -15, -41, 38, 63, 77, 3, 34, 69, -62, 39, 52, 63, 64, 55, 52, 2, -39, -56, 96, 76, 40, -8, 1, -60, 32, 5, 27, -68, 53, -15, -40, -29, -4, 10, -42, -61, 10, -11, -29, -78, -24, 13, -6, 29, 15, -26, -69, -36, 13, -47, 72, -28, 101, -59, 34, 57, -29, 82, -77, -35, 0, -20, -59, -57, -48, -3, -38, 7, 2, 24, 50, 68, -32, 44, -2, 81, -68, -65, 17, -9, -74, -8, -23, -47, 24, 19, -77, -35, 36, -15, 48, -27, -48, -84, 60, 23, 49, -83, -51, 11, -34, 49, 62, 32, -59, 50, -26, 53, 33, -18, 35, -50, -90, -53, 45, 64, -1, 28, -20, -23, -25, -28, -25, -6, 55, -28, 4, -4, -25, -49, 2, -72, 82, 4, -33, 20, -42, 56, -22, -69, 63, -20, -11, -37, -9, 55, -55, 25, 37, 
  -12, -37, 10, -16, -71, 31, -56, 31, 50, 46, 42, -34, 7, 69, -44, -63, -70, 34, -66, 48, -9, -60, -56, 55, -1, 62, -87, 13, 73, -24, -72, -45, 24, 2, -20, 46, -71, 6, -13, 74, -72, -63, -65, -81, 51, -49, 74, 75, -17, 54, 66, 54, -26, 38, -24, -23, -2, 88, 45, -8, 88, -2, 23, -24, -85, 61, 57, 72, -54, -27, -61, -9, -67, -69, 57, 77, 57, -16, -13, 45, -70, -23, 1, -36, -15, -41, -45, 79, -14, -6, -75, 35, -25, 74, -51, 41, 9, 74, 69, 39, -74, -8, -29, -41, -75, 42, 57, -74, -51, -74, 43, 1, 46, -67, -1, -34, -16, 20, 1, 35, -64, 54, -30, 62, 72, 76, 38, 56, 19, -35, -45, 21, 81, 45, -7, 44, 27, -21, 40, 18, -37, 78, 70, 1, 35, 31, -65, 80, -88, -13, 5, 35, -20, 66, 75, -35, 13, 21, -70, 74, -31, -31, 46, -43, -83, 54, 69, 5, 10, -65, 25, 47, 29, -63, -3, 9, 64, 87, -41, -83, 82, 8, 17, 1, 15, 32, 71, 45, -2, 61, -67, -83, -58, -83, -59, 37, -23, 11, 25, -51, 27, -76, 37, -20, -59, -63, -13, -68, -34, -23, 26, 11, -73, -51, -48, -10, -72, 65, 17, -24, 74, 37, 86, -23, 45, 51, 78, 31, 59, -81, -35, 27, -71, -60, 87, 73, -85, 51, 72, 71, 7, -46, -8, 31, 60, -28, 57, 15, -45, 73, -65, -12, 63, -65, -42, -46, 47, 65, 4, 78, 43, -65, 80, -12, -12, 69, -81, -22, 20, -20, 47, -44, 52, 44, 20, 34, -48, 57, 79, 23, 57, -24, 63, 79, -48, -55, 13, -75, -77, -21, 53, -48, 76, -43, -46, 15, 66, 
  -11, 31, -4, -15, -32, 30, 18, 66, -85, 55, 79, -8, 54, 40, -63, -61, 77, -22, -13, -80, 2, -8, 46, -14, 62, -83, -84, -29, 19, 46, 40, -97, 72, 45, -44, -70, 32, -32, -36, 78, -37, 4, 27, -75, -18, 76, -49, 41, -77, -35, -5, 52, 28, -12, -33, 6, 38, -46, -37, -24, 43, 27, -7, 75, 26, -59, 10, -34, 38, -57, 45, 70, -67, 49, -12, -66, -83, 44, -48, -31, -14, 70, -77, 56, 69, -79, 22, -75, -73, 9, 25, -9, -24, -4, -13, -14, -55, 7, 8, 1, -9, -71, 31, -59, -54, -51, 26, -37, 67, -71, -9, 67, -34, -79, 13, 3, -70, 52, 86, -14, 67, -64, -15, 56, 19, 26, 50, -105, -70, 83, -55, -7, -20, -40, -79, 33, -69, -43, -59, -55, -63, -27, 1, 74, -81, -72, -79, -1, 3, 22, 18, -82, 48, 36, -30, 0, -76, 69, -72, -5, 78, 40, 28, 28, -75, -15, 32, -5, -62, 55, 28, -74, -3, 49, 80, -69, 56, -35, 38, -51, -24, 88, 5, 75, 43, -76, -10, 38, -14, 75, 14, 16, -29, -29, 71, -69, -48, 21, 21, -76, 34, 91, 66, 12, 16, -36, -83, -59, 62, 51, 43, 27, -59, -86, -65, 45, -63, 63, 60, 30, 57, -82, 51, -82, 16, 27, -49, 37, 14, 71, -20, 0, -75, -7, -36, -99, 48, 10, -52, -72, 74, 60, 66, -13, -53, 17, -52, -91, -66, -67, 46, 61, 38, -6, -72, -57, 6, -18, 18, 69, 30, -85, -6, 30, 48, -40, -16, -45, 74, -42, -13, -49, 81, -7, -54, -66, 63, 0, 4, -5, 50, -44, 55, -3, 83, -33, -42, 57, 64, -53, -17, -74, -53, -85, 47, 34, 24, 
  -53, -16, 74, -37, 89, -37, -79, 65, -30, -64, 43, -69, -42, 40, -66, 10, -29, 42, 24, -9, -12, 43, 81, 50, -74, -12, -55, -28, -32, -55, 24, -42, -77, -63, 65, 35, 19, -37, -50, -34, -6, 64, -49, -46, -12, -13, 86, 9, -17, -1, -67, -19, 74, -63, 40, 19, 11, 51, 11, 46, 23, 32, -63, -5, -53, -6, 85, -3, 40, -4, -25, 26, 46, 85, -7, -21, -56, -28, 40, 42, -56, 65, -69, 41, -74, -33, 21, -52, -58, -68, -53, -31, 17, 26, -42, -49, -29, 32, -5, 72, 38, 0, 28, 5, -63, -43, 55, -80, 20, 25, 29, 18, 82, -48, 68, 65, -19, -64, 49, 53, -74, 55, 16, 23, -29, 29, -58, 15, -72, 54, 64, -71, -22, -43, -67, -13, 49, 15, 20, -5, -37, -23, -23, 75, -6, 2, -76, 53, 71, 55, 68, -23, 51, -11, -11, 4, -49, -24, 49, 42, 53, -65, 48, 26, 25, -49, -35, -43, 72, 5, -80, 33, 62, -85, 79, -34, 15, -14, 6, -79, -16, -69, 37, -9, -13, -43, 10, 16, 16, 34, 17, -63, 56, -41, -22, 43, 40, -61, 34, 35, 49, 61, -27, 74, -28, -50, 71, -65, 50, 46, -80, -2, 78, 41, -59, -30, 39, -10, -69, 43, 18, 33, 16, -31, -5, 61, 8, -43, -73, 28, -74, -31, 53, 65, 3, -58, 72, 42, -9, 48, 55, 44, -35, -54, 47, -1, -14, -26, -85, 33, -5, 77, -26, -1, -5, 81, 45, 20, -33, 89, -3, -56, -19, 43, -41, 79, 13, -33, -80, 11, -27, -67, 47, -39, -53, -24, 73, -3, -8, 45, 76, -6, 46, 11, 24, -36, -25, -52, 21, 22, -86, -79, 62, -80, -60, 35, -2, 
  30, -61, -81, 27, -19, -21, -75, 52, 65, -15, -74, 0, -30, -35, -3, 31, 10, 63, -18, 31, 53, -10, 60, 13, -4, -37, -4, 37, -11, -49, 24, -58, 55, -81, -45, 61, -15, -66, 78, -44, 47, -80, -61, -76, 16, 4, -87, -42, -36, 47, 67, 44, -64, 25, 31, 73, 51, -23, -78, 61, 76, -41, 55, -45, 8, -49, -29, 41, 64, -6, 2, -31, -38, -56, -79, 83, -23, 12, 53, 81, 32, 29, -46, 17, -68, -52, 22, -79, 83, -11, -53, 99, 52, 53, 65, 52, 6, -24, 54, -12, 90, -48, 44, -36, 81, 40, -31, 6, -9, 89, 26, 55, -23, 60, -22, 12, -62, -62, -16, 66, -31, 0, -17, -69, 88, -81, -79, -24, -53, 55, -77, 24, -67, 43, 67, -1, 42, -38, -82, -6, 61, 4, 28, -13, 5, -2, -83, -73, 26, 3, -46, -16, -61, -57, -70, 15, -1, 12, 8, 28, 55, -52, 29, -10, -47, 26, 50, -71, -7, 53, 67, 68, 78, -62, -50, 61, 18, -14, 57, 2, 17, 83, 68, -75, -19, 6, -67, -57, 0, -22, 40, -39, -22, -21, -69, -4, 73, -16, -74, -14, 33, -23, 7, 46, 69, -14, 28, 70, 0, -40, -39, -70, 36, 28, 44, 48, 33, -66, 54, -33, 17, -2, -12, -6, 15, 37, 57, -40, 62, 11, 33, -62, 86, 38, -11, 48, -76, -66, -27, 32, -56, 66, -9, 21, -4, -70, -30, 55, -43, -30, 49, 61, -25, 70, -70, 22, -3, -32, -68, 40, -61, 77, 99, -29, -74, 73, 27, 30, 42, -19, -41, 13, 74, 31, 96, -18, 74, 52, 67, 66, -77, -49, -80, 43, 29, 3, 50, -25, 32, 25, -9, -63, -62, -77, -63, -58, -36, 
  12, -21, -65, 44, -21, 29, 10, -16, 12, 44, 54, 7, -16, -17, -19, 71, -48, -58, 68, 64, 7, 20, 6, -74, -13, 76, -40, -27, 23, -1, 68, 62, 22, -59, 68, -87, 50, 25, 5, 29, -84, -23, 25, 36, 46, -38, 72, -67, 43, 72, -30, -42, 80, 29, 57, -17, -52, -2, -5, 42, 21, 59, 53, 23, -69, 44, 24, -87, 72, -63, 4, -1, 85, -7, 14, -61, -29, 48, 69, -4, 8, -9, -73, -64, 75, -2, 16, 20, -59, -20, -47, 3, -85, 5, 55, -10, -51, -21, -60, -22, -58, 77, -65, -39, 78, 88, -73, 59, 16, 23, 16, 59, -88, -60, -24, 73, -28, -74, -15, -82, 22, -6, 73, 31, 74, 54, 87, 71, -85, -7, 64, -13, -54, 19, -29, 25, 49, -20, -37, 30, -68, -12, -15, -47, 76, -61, -45, 3, -22, -66, 1, 27, -78, 28, -3, 26, 46, -23, -64, -54, 29, -41, 59, -73, 55, -9, 50, -44, 70, 16, 11, 61, -66, 50, -79, -76, 76, -16, -37, 48, 82, 31, 34, -4, 36, -75, -77, 16, 26, -46, 2, -70, 89, -56, -57, -14, 7, 43, 39, -20, 33, 85, 40, -76, -27, -51, -59, -51, -76, 3, 49, -71, 40, 27, 27, -68, -25, 65, 79, -13, -31, -13, -24, 8, -46, 60, -62, -7, 12, -59, 7, 57, -76, 77, -59, 9, 23, 23, 58, -42, -50, -3, 59, -14, 34, 40, -1, 16, -5, -19, 67, 49, 26, -54, 12, 39, 29, 75, 48, 12, -10, 50, -61, -9, -69, 23, 32, 9, -79, 39, -78, -25, -16, -65, 4, 58, 30, 17, 58, -55, -50, -28, 38, 13, -6, 22, 40, 80, 23, -6, 62, -47, -10, 0, -52, 26, -77, 
  -79, -32, 6, -66, 77, -33, -42, -16, -3, -4, -70, 69, -21, -30, -64, -35, -78, 53, 41, -5, -25, -71, -21, 2, -17, 42, 23, 66, -28, -82, 38, -81, 73, -38, 26, 39, 79, 46, -58, -43, 8, 41, -80, -8, -73, 52, -17, 13, -3, 37, -68, 46, -28, 78, 77, 76, -26, 4, -10, 17, -1, 36, -69, -38, -49, 41, 37, -62, -48, 52, -47, -1, 71, 70, -40, 22, 17, 24, 60, 19, -76, -11, 27, 69, -9, 56, -9, -54, -42, 22, -79, -46, 60, 5, 22, -8, 74, -9, 48, 25, -82, -40, -21, -9, -4, -76, -51, -40, 84, 12, -71, 39, -71, 80, -14, 23, 3, -31, 58, 38, 17, -63, 60, 48, -7, 70, 56, 20, 66, -82, 7, 10, 60, -48, 56, 78, 78, 26, 49, 15, 14, -54, 31, 37, -29, -26, 77, 81, 6, -39, 30, 80, -83, 65, 11, -5, 47, 4, -78, 9, 66, 79, 66, 4, 49, -40, -36, -27, -25, -10, 55, 52, -46, 12, 69, -38, 49, 73, 62, 43, 34, 35, 47, -41, 71, -68, 55, -63, -54, 30, -81, 27, -82, -70, -40, 20, -48, -43, 48, -41, -79, -13, 75, -29, -50, -54, -32, -38, 84, -40, -79, -67, 4, 4, 34, -6, -53, 52, -73, -81, 50, -27, 3, 0, 73, 3, -37, -43, 77, 33, 60, -21, 64, 1, 50, 18, 2, 63, -37, -62, -46, -43, 6, 45, 4, 47, 38, 32, 28, 55, 17, 4, 36, -68, -25, -63, 52, -54, -33, 16, 21, 29, 63, -82, -37, 42, -76, 11, -45, 46, -26, 11, -54, -73, -74, -57, 41, -55, -70, -30, 24, -60, -22, 43, 59, -75, 71, 29, 24, -51, -49, 58, -77, -19, 68, 11, 84, 
  -4, -5, -34, -12, -84, 10, 6, 32, -21, -17, -62, -13, -59, -50, 60, 60, 90, -12, 52, -83, -10, 80, -3, 47, 71, 69, 41, -57, 42, -79, -41, -1, -82, -51, 1, -5, 41, -37, -70, 29, -57, -28, -62, 42, 94, -55, -4, 30, -62, -10, -58, 9, 59, 25, 54, 6, 14, 43, 46, 82, -49, -85, -58, 29, 75, -61, -58, 36, -56, -22, -38, -22, 7, 50, -25, 64, 48, 14, -58, -82, -4, 71, -21, 18, -21, -65, -32, 64, -9, 18, -51, -33, -38, 41, 49, -21, -64, 21, 22, 23, -66, 11, 62, 24, 15, 61, -73, 15, -68, 44, 6, 71, 68, 67, 65, -58, -65, 67, 3, 21, -32, 14, -3, -10, -7, -53, 41, 30, -76, 40, -30, 66, -68, 4, 7, 14, -18, -8, -72, -34, -38, -73, 25, -74, 83, 14, 13, -68, 60, -12, -34, -13, 7, -77, -4, -26, -50, -53, -47, -26, 52, 33, -48, 34, 58, -68, -59, 61, 70, -67, 30, 38, -41, 72, 72, -30, 63, -55, 50, 39, -37, 14, -26, 2, -71, 16, 65, 2, 20, -82, -62, -40, -24, -8, -60, 17, -42, -39, -42, -75, -3, 6, -90, 69, -60, 10, -5, 39, 73, 74, -55, -20, -51, 34, 10, 26, 20, -52, -18, -25, 34, -40, -41, -50, -5, 6, 3, -36, 82, -71, 84, 50, -17, 32, -59, 47, -20, 68, 4, -41, 23, 49, -75, -65, 35, -46, -47, 13, -67, -34, -23, -77, -4, 2, 72, 2, -67, 61, -8, 24, 15, 34, 17, -62, -46, -22, -17, -68, -19, 0, -28, -2, 48, -29, -32, -71, -74, 49, 4, 17, -85, -38, 64, -16, 33, -27, -16, 29, -48, -46, 25, -58, 43, 75, -55, 23, -51, 
  20, 53, 11, 79, -21, 20, -47, 18, -60, -57, 10, 77, -38, 74, -49, -65, 77, -44, 89, 45, 76, -45, 30, 64, 13, -42, -59, -23, 67, 40, -75, -71, -42, -63, 45, -46, -43, -85, -67, -58, 51, 14, 66, 20, -23, 42, -48, 5, 11, -60, 18, -76, 33, -19, 13, -30, 10, 10, -14, 55, -78, -50, 68, -43, 70, 47, 5, 21, 22, 40, -60, -60, -25, -4, 74, 73, -79, 13, 88, -8, 0, 75, 44, -37, -4, -78, -38, 39, -6, -52, 82, 65, 34, 47, 63, 27, 3, 19, -61, 0, 59, -34, 21, -75, 31, 12, -76, -87, 68, -55, -41, 60, -12, -43, 61, -16, -9, 71, 11, 30, -38, -65, -51, -2, 4, 32, 87, 51, -82, 30, 0, 69, -61, -8, 53, 36, 36, 78, 75, -22, 39, 82, -68, -60, 67, 75, 69, 53, 36, 38, -44, -34, -13, 24, 4, 39, 8, -24, 72, -36, -56, 49, 40, 33, -89, 60, 77, 26, 87, 19, -31, 69, -23, -3, 63, 56, 22, 38, 30, -43, 46, -56, 77, -42, 32, 33, -32, 75, -44, -38, 70, 32, 46, -83, 68, -38, 20, 35, 72, 6, 70, -53, -61, 30, 82, 58, 27, 22, 77, 74, -28, 4, 14, 72, -73, -80, 61, 8, 46, 22, -42, 54, 76, -24, 38, 70, 42, -5, -3, -63, 34, -4, 49, -55, -32, 4, 62, -23, 65, -60, -52, 43, -14, -2, 69, 56, -35, -26, 16, 16, 58, -35, 75, -74, 11, -29, 31, -43, -65, 70, 5, 51, 46, -37, -6, -74, 74, -21, 64, -87, 42, -16, 44, 6, 8, 17, -74, 18, -83, 19, -79, 27, 13, -68, 53, 42, -26, -13, 42, -62, -87, -25, -48, -69, -67, -76, -62, 
  -24, -33, 16, 53, -11, 11, -74, 51, 69, 67, -24, 26, -45, 33, -47, -55, -95, 8, -4, -88, 9, 19, -28, -66, -22, -58, -81, -49, -37, -30, 37, 8, -74, 40, -42, -55, -12, 75, 14, -40, -4, -74, -80, 4, 2, -26, 2, 1, 80, -8, -36, -40, 47, 81, 14, -47, 62, -29, -66, -67, -55, -36, 1, -73, 56, -46, -30, -90, 20, -53, 78, -59, -27, -66, -39, 44, 33, -70, 84, 47, -17, -64, -24, -39, -81, 75, 77, 7, 24, 33, 62, 67, 17, 43, -10, -28, 78, -43, -84, -50, 5, 24, -56, 66, 5, -50, 73, -64, 74, -32, -69, 77, 39, -83, 66, -26, 77, -16, 12, -39, 85, 37, -69, -35, -33, 49, -47, -24, 20, 74, 49, 17, -15, -37, -54, 19, -90, 24, -62, -75, 8, -54, -20, -9, 43, 55, -88, 22, -9, 78, 70, 14, 26, -4, 71, 59, 33, -59, 1, -43, 4, 20, -54, -48, -22, -43, 77, -38, 6, 26, 27, 63, -78, 9, -78, -56, -31, -11, -20, 67, -37, 27, 49, 4, -59, 5, 24, 5, 30, -56, 45, -36, -13, -43, -11, 57, 67, -23, 14, 20, -3, 79, 51, 8, -57, -9, -5, 54, 24, -43, -23, -42, 48, 10, 57, 81, 14, -44, -67, 57, 28, 15, -20, -8, -65, 0, 28, -85, -48, 8, 12, 69, 51, -66, -35, 24, -30, -17, -58, -44, -30, -64, 96, -43, 3, -15, -43, 55, 99, -68, 10, -67, -37, 42, -74, 53, 63, 50, 17, -23, 56, -61, 34, -78, 4, 66, -70, 28, -42, -40, 37, 4, -85, 40, -80, 21, 48, -26, -50, 69, 88, -62, -11, 46, 43, -74, 21, -74, 28, 34, -52, -44, 82, 72, 8, 43, -77, 
  85, -14, -58, 50, 55, -50, -34, 21, -71, 53, 18, 3, -71, -53, -6, 46, 46, 77, 70, -74, -39, 44, 51, -36, -11, 28, -73, 57, -46, -21, 15, -4, 19, 65, -14, -45, -46, -6, -54, 63, 37, 79, 33, -26, 5, 39, 72, 27, -74, -10, 49, -12, -4, 32, 61, 77, 58, -3, 18, -39, 19, -14, -72, -52, 22, -56, -15, -79, 82, 7, 41, 76, 20, -79, 76, -20, 8, 78, 26, 26, -78, -19, 17, 60, 73, 69, -20, -79, 68, 11, 54, 33, 58, 40, 33, 9, 82, -63, -52, -80, 0, 36, -53, 80, -21, 80, -65, 87, 43, 81, 47, 15, -42, 35, -13, -37, 54, 35, -72, -25, -36, 66, -17, -39, -3, -42, -21, 33, -34, -23, 81, 21, -82, -38, 19, -67, 49, 61, -32, -69, -17, -27, -36, -37, -18, 74, 77, -74, 41, 74, -78, 7, 51, 68, 9, 11, 4, -51, -13, 47, 25, 32, 83, -59, 11, 11, -24, 22, 59, -49, -32, 73, 12, -1, -57, -6, 1, 4, 66, -31, -53, -8, -1, 5, 24, 43, -19, -65, 34, 9, 8, 14, -57, 4, -20, -76, 77, -53, 80, -4, -57, -64, -13, 80, 22, -8, 51, -58, 65, -72, 82, -20, 4, -50, 69, -54, 13, 57, 25, 69, -46, 83, -10, 29, -10, 17, -49, -43, -76, 51, 65, 0, -12, 19, -45, 11, 18, 55, -82, 64, -6, -7, 63, 11, 7, 59, -13, 7, -37, 4, 56, -66, 60, -16, 59, -5, 84, 18, 47, -19, -50, -53, 19, 14, -68, -71, 60, 34, 62, -81, -50, 10, 33, 51, -61, -6, -11, -73, -25, 11, -26, -79, -52, -31, 66, 13, -69, 69, -38, -81, 66, 52, 36, -18, 36, 83, 49, 
  -28, 54, 40, -9, 0, 46, -8, 28, 52, 67, -37, -68, -20, -16, -28, 66, 40, -2, -63, 56, -86, -38, -87, 16, 72, -30, 53, 54, 7, -19, 61, -21, 52, -69, -69, 7, 6, -35, -70, 24, -33, -76, 33, 8, 36, 19, 26, 13, -86, 47, -66, 6, 64, -23, 47, -90, 19, 78, 4, -86, 4, -89, 9, -70, -43, 20, 48, -13, 77, -12, -57, -13, -29, -84, -19, 73, -55, 44, 60, 3, -44, -47, 8, -33, 10, 12, -40, 74, 39, -64, 6, -29, -47, -80, 85, 26, -80, -55, 84, -5, -59, 44, -69, 56, -82, 10, 3, 26, 4, -59, 19, -7, -13, -22, -83, -64, 47, 0, 0, -22, 13, 52, -11, 77, 79, 54, -7, 40, 54, 75, 25, 50, 58, 5, -9, -26, 26, -97, -9, 38, -13, 51, 11, -30, 54, 38, -50, -46, -28, -80, 21, 20, -38, 19, 62, -27, 69, 67, -39, -11, -69, -69, -25, -4, 22, 14, -10, -64, 56, 86, -77, -25, -42, -51, -32, 90, 71, 26, -43, -77, -15, -59, -49, 52, -69, -51, -67, -26, 46, 77, 13, -28, 10, -26, -1, -55, 31, -70, -54, -32, 28, -10, 66, -16, -44, 48, 0, -9, 34, -65, 22, 29, 15, -4, -18, 4, 51, -88, 59, -52, 67, -45, 72, 14, -9, -78, -39, -5, 47, -37, -15, 44, 54, 53, 10, -20, -16, 28, 84, 38, 70, 46, 84, -22, -55, -86, -18, -31, -38, -13, 21, -64, -26, 22, -37, 50, -22, -43, -16, 48, 51, -35, 85, -51, -77, 45, -13, -79, 55, 26, -65, -69, 72, -83, 52, -63, -78, -59, -67, 15, -49, -82, 33, 46, 79, -4, 31, -69, -5, 3, 73, -32, 29, 11, -43, -46, -24, 
  47, -36, -61, -45, 72, 67, -80, 62, -56, 66, 66, -27, -30, -86, -30, -79, -4, 3, 75, 41, 64, -39, 27, -37, -5, 2, -40, -43, -57, -32, -1, 6, 67, 14, -16, -43, -50, 13, -13, -60, 64, 42, 60, 56, -15, -15, 41, 57, 77, -67, -8, 51, -32, 77, 69, 25, -51, -26, -23, -25, -42, 52, -3, 21, -13, -52, -68, -33, 33, 12, 59, 40, -26, -43, -2, -19, -63, 0, 33, -49, 84, -24, -47, -34, -37, 65, 1, -27, -19, 8, -44, -24, 6, -13, -61, -41, -19, 37, -35, -31, -25, -27, -63, 26, -44, -46, 5, -67, -73, -31, -71, -37, -14, 86, -73, 66, -34, -45, -36, 9, 61, 61, 9, 24, 5, 76, -19, 87, 44, -74, 82, 74, 35, 63, 2, 59, 47, -23, -31, 35, 20, -31, -68, 80, 30, 78, -33, 34, 25, -28, 7, 68, 53, 12, 92, 19, -12, -56, 1, -47, -29, 52, -73, 17, -36, -52, 95, -70, -48, -51, 77, -62, -31, 86, -29, -49, 79, 53, 67, 29, -67, -90, -35, 32, -60, 86, 5, 61, -6, -25, -2, 36, 12, -14, 44, -62, -22, 71, -3, 42, 46, 75, 52, -12, -2, 24, -26, 1, 13, 41, -69, 46, 81, -51, 37, -2, -1, -72, -56, -52, 25, -43, 68, 82, 14, 24, 58, -59, 6, -12, 51, -21, 19, -51, -32, -39, 16, -13, 87, 67, 11, -96, -39, -82, 53, -47, -22, -49, -2, -19, -65, -18, -41, 72, 72, -10, -1, 79, -7, 69, -2, 65, -15, -60, -63, 7, 57, 36, -5, -14, -71, -4, -43, -71, 56, 74, 59, -50, -76, -60, -44, 66, 31, -15, 21, 7, -30, 17, -65, 61, -5, 63, -2, -46, -45, -29, 58, 
  -79, -40, -34, -38, 35, 25, -55, 10, 43, 41, -38, 37, 69, -54, -1, -21, -71, 27, -1, 12, 83, -76, 47, 40, 12, 44, 64, -11, 83, 48, -27, -22, 36, 60, 71, -82, 59, -63, -62, -35, 0, 4, -14, -66, 18, 34, 59, -36, -4, -39, 49, 21, -53, -39, 81, -65, 46, 79, -67, -16, 49, -63, -21, 54, 43, -69, -25, -71, -52, -45, -17, -46, 7, 68, -82, 32, -39, 33, -18, -25, 80, 22, 2, -50, 13, 48, -69, 76, 25, 43, -22, 51, 26, 54, -61, 34, 60, -43, -81, 83, -3, -29, 71, 2, 24, 32, 34, 3, 34, 29, 10, -41, 19, 41, 29, -74, 75, 84, 60, -39, -79, -72, -14, 14, -1, 7, -18, -1, 76, -5, -48, 53, -38, -11, -43, 61, -47, -29, -19, -13, 54, 8, 68, 74, 14, 63, -51, 18, 1, 45, -17, -45, -12, 65, -32, 5, -47, 10, 62, 7, -82, -59, 21, 42, -15, -48, 30, 82, 5, -17, -35, -55, -45, -82, 38, 16, 1, -78, -81, -27, 40, 27, 0, 49, -54, -14, 20, -1, -16, 20, 81, 26, 50, -30, -49, -60, -21, -70, 35, -26, -60, 78, 57, 32, -28, -57, 69, -67, 45, -17, -76, 73, 46, 62, -11, -41, 32, -57, -18, -33, -17, 80, 31, -75, 4, 65, 4, 13, -38, 50, 70, 44, 72, -19, 8, 75, -75, -33, 40, -70, 3, 65, -83, 29, -65, -3, -74, 43, 25, -39, 81, 0, 55, -51, -44, -63, -38, 27, 8, 34, 27, 49, 4, 70, 14, -33, -22, 20, 3, -35, 5, 81, 11, -7, 41, 75, 83, 74, -57, -35, -28, 23, -83, 67, 42, -74, -80, 47, 43, 36, 54, 6, -9, 75, -55, 20, 11, 
  72, 55, -52, 62, -53, 10, -22, 36, 62, -4, 13, 69, 17, 29, -15, 38, -65, 61, 17, 20, -50, -13, -48, -49, -21, -27, -70, -11, -47, -31, 87, 11, 53, 13, 74, -55, 11, 6, 77, -22, -21, -63, -23, -57, -27, -16, -28, -1, -1, -19, -31, 8, 38, -55, -31, 7, 8, -78, 31, 9, 17, 57, 51, 79, 46, -36, -47, 54, -73, 19, 49, -39, 55, 8, 22, 17, -19, -73, -10, 16, 31, 88, -6, -68, -19, -52, 62, 32, 22, -25, 70, -87, -66, 24, -66, 52, 51, 56, 16, 79, 71, 15, 39, -31, 64, -22, -21, -73, -50, -72, -76, -21, 39, 10, 28, 15, -61, -50, -34, 30, -14, -6, 63, -34, -52, 22, 17, -64, 60, -59, 30, -73, 70, 66, 6, 48, 0, 35, 27, 30, 0, -75, -60, 12, 23, -2, -6, -56, -17, 57, -78, 41, -17, 54, 64, 27, -32, 68, 67, 16, -6, 77, 88, -77, -51, 32, 14, 79, 23, -41, 42, 37, 8, -9, 78, 76, -17, -27, -43, 74, 72, -62, 9, 74, -83, -25, -77, -43, 1, -1, 0, 69, 20, -50, 3, 10, -33, -20, 65, -47, -3, -49, -77, 17, -39, -14, 37, 36, -2, 17, 34, 13, -5, 50, 67, -8, -70, -28, 13, 35, -80, -74, 88, 11, -46, 15, 56, -74, 2, 17, -50, 59, -2, 5, 87, -57, 69, -19, 30, 22, 82, -61, -42, 56, 2, 45, -42, 72, 28, 6, 13, 53, -63, 74, -1, -66, -55, 0, -71, 58, -86, -37, 9, -46, -32, -37, 40, -37, -14, 8, 53, -84, 59, 27, -58, 66, 20, 15, 49, -26, -19, 4, 47, 61, 40, 44, 13, 36, -39, -60, 29, 89, -1, -23, 76, 64, -23, 
  60, -55, 13, 42, 22, -16, 26, -8, -87, 52, -48, 25, 27, -21, -46, 23, -44, 40, -69, 34, 17, -44, 72, -78, 83, -81, -6, 56, -81, -22, -47, -56, 54, -79, 67, 62, -4, -46, 54, -30, 15, -19, -15, 45, 31, -64, -59, -1, 34, 22, -75, -58, 36, 71, -24, 43, -3, 20, 52, 52, 19, -27, 65, -52, -19, 8, -56, 83, 50, 80, 43, 46, 50, -37, 8, 19, 68, 78, 42, 21, 6, 70, -77, -38, -10, 28, -41, 71, -37, 15, 57, -11, -82, 82, 0, 41, -34, 13, 53, 6, 39, 24, 16, 13, 50, 84, -10, -66, 15, -72, 42, 69, -56, 7, 34, 76, -69, -82, 45, 65, 48, -27, -24, 34, 64, 62, -54, -42, -43, -74, 46, 62, 25, 40, 73, -32, -32, -45, -2, 74, 14, 26, 54, -15, 18, 35, -23, -52, -15, -41, 13, -66, -23, 71, -80, 23, 28, 1, -1, -76, -41, 34, -75, -20, 21, 5, 7, -49, 50, -52, -54, -39, -65, 14, -25, 57, -43, 8, 40, -8, 84, -1, 41, -77, 12, -14, 59, -74, -18, -51, 24, 53, -20, 12, -15, 85, 3, -9, 78, -40, -13, -24, -39, -85, 82, 17, -83, -66, -32, 9, -62, -15, 72, -9, -2, 59, 3, -32, 56, 3, 58, -68, -62, -25, 58, -2, -10, 84, 61, 45, -66, 29, -53, -44, 18, 56, 10, -60, -60, -54, -33, -21, -19, 34, -31, 48, 15, 27, -19, -7, -4, 51, 57, 5, 59, 82, 47, -39, -57, -49, 75, -13, -3, -16, 57, -14, -8, -14, 59, 42, -46, 65, 49, -23, -33, 18, 74, -59, 37, -22, -5, 22, 67, 14, -65, 53, -63, 34, 56, 4, 44, 30, 15, -20, -21, -79, -15, 
  13, -61, 59, -13, -24, 33, 59, -27, 19, -1, -75, -34, -43, -71, -16, 92, 37, -46, -77, 74, 45, 14, 86, 15, -74, 21, -25, -36, -56, -15, -34, -56, -27, 41, 14, 64, 49, 65, -73, -49, -61, -81, -46, -78, 71, -26, -26, 52, -74, 16, -31, -39, -16, -50, -36, -71, -78, -67, 62, 35, -78, -68, 2, -43, 77, 30, -3, 49, -56, 65, 81, 71, 63, -8, 87, -80, -35, 55, -86, 61, 16, -25, 95, -68, 48, 27, -8, 84, 96, -44, 56, 4, -60, -60, 86, 0, -24, -29, -34, 1, -3, 58, 37, 39, 56, 49, 31, -64, -6, 32, -66, -36, 89, -27, 12, 8, -46, -13, 5, 30, 39, -25, 2, 8, 47, 30, -8, 32, -63, 6, -16, -47, -1, 5, -26, 72, -17, 66, -23, -3, -38, 35, 26, -69, 58, -70, -42, -79, 2, 45, -43, 86, 52, -23, 33, -71, -41, 60, 50, 7, 7, 6, 25, -59, 75, -51, 50, 72, 13, 82, -62, 3, 87, -27, -11, 51, -69, 16, -67, -14, -16, -75, 44, -28, 25, 71, 5, -12, 79, -57, 76, -23, -4, 97, 12, -8, 71, -34, 23, 23, -49, 7, 76, -34, 72, -62, 0, -26, -49, 22, 52, 25, -28, -40, -66, -68, -23, 13, 73, 67, 2, 68, -58, 44, -36, 25, -45, -26, -79, 0, 80, 25, 33, 26, 47, 15, 6, 57, -25, 29, 62, 2, -77, 82, -12, -10, -19, -10, 68, -22, -25, 12, -72, -23, -23, -28, 68, -24, 24, 84, 4, -1, -44, -69, -75, -68, -40, 73, 40, -66, 15, 85, -69, 53, 38, -30, 65, 99, -72, -64, -60, 22, 83, 5, -19, 48, 88, 15, 9, -56, 39, -67, -31, -39, 51, -22, 24, 
  -34, -63, -2, -14, 39, 10, -71, -8, 58, -32, 62, 71, 79, 27, -28, 19, 37, -36, -33, 4, -39, -67, -74, 73, 38, -33, -10, -41, -88, -75, -81, -62, 8, -27, -39, -82, 52, 24, -61, -35, -58, 85, -58, -53, 42, 26, 9, -4, -3, -45, -29, -24, -78, 81, -65, -51, 55, -57, -37, 69, 87, -30, 81, 14, -1, -24, 75, 35, 41, 54, -45, -60, -22, -35, 52, -49, -73, -26, -20, 28, -34, 55, 23, -35, 44, 20, -43, -71, 58, 57, 38, 23, 1, -8, -73, 61, 8, -30, 35, 30, 54, 9, 63, 89, 2, 3, -64, -69, -15, 40, 36, 19, 76, 56, 35, 12, -65, 9, -48, 54, -4, 39, -28, -57, 38, -39, -24, 50, -46, -82, -26, 26, -71, 3, -89, -26, -28, 43, -55, 48, 55, 56, 47, 65, 48, 36, 22, 70, 29, -80, 28, -49, 36, -13, -8, 53, -69, 17, -59, -36, 10, 24, -3, -2, -8, -78, -9, -70, -10, 28, -27, 46, -49, 70, 51, 2, -52, 81, -41, 5, -19, -21, 3, -29, -21, 67, 48, -23, -14, 13, 75, -5, -36, -91, 62, -1, 54, -56, 1, 58, 25, 53, 43, 21, 34, 3, 21, -23, -32, 67, -53, -39, 85, -23, 6, -45, 47, -51, -77, -52, -70, 17, 44, -61, -53, 37, 40, 58, 53, 39, 24, 43, 58, -58, 23, -32, -56, -10, 11, 45, -49, -26, 5, 74, 85, -74, 9, 55, 74, -82, 53, 56, 64, 9, 10, 69, 79, 52, -56, -58, 25, 22, 53, 9, -31, -3, -35, -17, 71, -85, -54, -32, -51, -71, -65, 67, 10, 1, -23, 54, 65, -2, -74, 27, -81, 47, 49, 11, 36, -46, -34, 71, 58, -37, 41, -49, 64, 
  39, -71, 70, -74, -29, 77, -4, 48, 54, -2, -31, 29, 53, -50, 33, 9, -32, 19, 34, -38, 48, 20, -44, -38, -18, -58, 46, 11, 5, -72, -33, 22, -46, 70, -30, 70, -62, -34, -4, 50, -65, -47, -18, -69, -61, 63, -41, 25, 88, -8, 5, 51, -17, -51, 23, 64, 56, 24, -42, 80, -31, 43, 5, 79, -21, -36, -11, -66, 79, -56, 6, -50, 85, -86, -18, 69, -23, -33, -15, 19, 75, 62, 64, 19, 14, -5, -83, -48, 26, 33, 48, -85, -72, 77, 9, -58, 66, -31, -14, -66, -22, -29, 59, -2, -67, 21, 56, -15, 9, 78, 15, 42, 36, 61, -77, 67, 54, 56, 20, -21, 7, 17, 51, 25, 57, 26, -57, -66, -5, 6, -49, -27, -62, -36, -2, 18, 21, -62, -71, 45, -70, 52, 76, -45, 77, 3, -68, -6, -72, 8, 29, 30, 46, -77, -20, 24, -28, -41, -56, -53, -63, -1, -41, -45, 63, -41, 54, 63, 47, 4, -7, 4, -67, -42, 72, -8, 14, 41, 48, -16, -75, 15, 68, 63, 69, -27, 39, -67, -49, 51, -68, 25, 64, 20, 35, 19, 41, 28, 16, -41, 0, 27, -7, 80, -53, -39, -9, 3, 77, -42, -6, 73, -82, -58, 46, 75, 30, 52, 23, -72, -35, -4, 7, -65, -44, -58, 39, -14, -47, -72, 4, 51, 78, 19, -52, -18, 47, -44, 74, -65, 13, 40, -8, -36, 65, -74, 80, -49, 39, 4, -58, 74, 48, -52, -64, 44, 50, -49, 74, -2, -5, 25, 53, -13, -70, -54, -69, 37, -46, -12, 17, -78, -62, -19, 65, -23, -66, 72, 13, -14, 39, 53, -69, 68, 60, 9, -48, 56, 44, 18, 60, -23, 78, -65, 57, 18, -68, 
  41, -61, -71, 63, 64, -23, 22, -36, 66, -75, -18, 1, 59, -30, -44, 51, -17, 64, -67, 25, -65, 79, 30, 11, 4, -87, 28, -63, -27, -24, -19, 56, -34, -34, 69, -63, 8, -20, -66, 13, -55, 78, 83, -43, -60, -66, -25, 53, 23, -42, 43, 73, -78, 7, -68, 51, 69, 24, -87, 51, 51, -70, -36, 7, -34, 43, -35, 70, 25, -3, -37, -23, 28, -21, 16, 3, 11, -21, -4, 34, -83, -3, 37, 59, -18, 25, -14, 59, 22, 46, 84, 14, 16, 13, -59, 5, -75, -14, 71, -26, 48, 19, 28, -3, -52, -8, -65, 24, -17, -8, 34, -19, -43, -12, -66, -61, 53, 29, -13, -15, -13, -91, 53, 1, 51, 28, 37, 31, 16, -23, 32, -16, 85, 20, -3, -18, -6, 52, 6, 17, 36, -11, -5, 39, 84, -79, -77, -46, 68, -51, -78, -77, -77, 29, 30, 7, 20, 47, 0, -74, 51, -48, -66, 75, 9, -23, -3, -61, -75, 24, 23, -55, 63, 30, 21, 48, -58, -13, -16, 57, 5, -79, -42, 50, 6, -68, 20, 32, 65, 10, 54, -8, 85, -2, -48, 79, -37, -85, 0, 16, 2, -32, -4, 7, 21, -46, -1, -11, -17, -72, 71, 74, 15, -2, 47, 32, -35, -86, -37, 87, 61, 43, 16, 28, 10, -12, 37, -72, 66, 2, 5, -52, -38, -12, 60, 72, 9, 20, -57, 12, 85, -16, 15, 90, 35, 42, 12, 55, 65, 50, 39, -19, -10, -48, -30, -69, 21, 39, -61, 75, -26, 75, -1, 36, -27, 37, -33, 70, 53, -32, -57, -23, 71, -72, -73, 55, -74, -45, 30, 71, 63, -54, 35, -63, 44, -26, 15, -71, 63, 70, 1, -45, 21, 66, 88, -36, 80, 
  55, 19, -15, 61, -54, 82, 71, 21, -44, 81, 55, 82, 31, -43, -44, 58, 65, -63, 5, 83, -46, -53, 23, -77, 47, -48, -68, -42, 52, -13, -75, 45, 51, -44, -64, 65, 47, -21, 55, 65, 58, 55, -62, 62, -73, 22, -14, 5, 35, -72, -38, 75, 71, 7, -38, -53, -33, 63, 40, -61, -41, -8, 57, 29, 80, -15, -69, 28, 1, 14, 28, 29, -10, 55, 60, 38, 15, -54, 27, 69, -62, 3, -61, -49, 43, 58, -33, -20, -59, -35, -72, -16, 22, -60, 22, -12, -76, 17, 12, 37, -14, 36, 74, -45, -53, -1, 33, 62, 60, -47, 57, -45, -1, 8, -11, 61, 10, -32, -9, -26, 62, -76, -37, -25, 48, 31, -72, -70, 64, -28, 9, 33, -3, 43, -61, 84, -71, 78, -41, 72, 48, 20, 45, 26, 16, 86, -17, -77, 4, 64, 21, -16, 33, 25, 36, -28, 57, -48, 57, -16, -38, -42, -69, -66, 33, 53, 80, 17, -40, 21, -63, 31, -25, 71, 83, -32, -5, -21, 90, -80, 10, -61, 29, 73, -61, 35, -31, 0, -7, 58, -3, 27, 24, -73, -71, 71, 41, 56, 49, 26, 35, 8, 66, -78, 11, 61, -79, -81, 49, 43, -37, 38, -26, 21, -53, -44, -58, -39, 84, 39, 77, -34, -40, 49, -80, -50, 23, -48, -24, -44, 75, 84, 33, 64, 67, 65, 81, -24, 66, 46, -12, 10, 31, -77, -48, 54, -11, 28, -20, -60, -62, 77, -31, -74, 9, 66, 22, 35, 24, -71, 23, -5, 34, 6, -49, 30, -54, -46, -60, 47, 17, -3, -77, 46, 72, 20, -24, 32, -11, -29, 86, 15, 25, 80, 30, -56, 84, 10, 7, 18, -80, -77, -64, -59, 33, 6, -44, 
  -8, 14, 37, 74, -41, -22, 90, -5, -57, 61, 15, 11, 86, 77, 8, -61, -16, 32, -77, -48, 11, -18, -11, -45, 22, -38, 82, -42, -48, -19, -17, -53, -35, 82, 38, 46, -62, -17, 7, -9, -69, 76, 0, 0, -36, -1, -36, 62, 7, 90, -44, -3, 2, 63, 31, 82, 60, 8, 48, 3, -77, -17, 42, -44, 41, 24, -11, 57, -66, -13, 62, -32, 37, -52, -34, 9, -72, 24, 39, 56, 44, 2, 34, 4, 41, -28, -54, -60, 38, 8, -50, -60, 86, -30, 77, -63, -7, -37, -75, -29, 5, -69, 20, 16, 1, 10, 25, -57, -77, 55, 6, -79, 56, -16, -18, 87, 23, -29, -59, 4, 30, 3, 71, 14, 65, 52, -74, -57, -8, 43, 32, 6, 82, -26, -28, -41, 19, -8, 81, -38, -31, 61, -29, -54, -78, 17, 59, 48, 9, -5, -81, -14, -77, 56, 84, -9, -24, 76, -49, -16, 61, -5, -68, -39, 33, 50, 68, 43, -59, -17, 44, -5, 41, -1, -58, 64, 68, 28, -15, -9, 7, 0, -2, -42, -25, 60, 38, -67, 12, 72, 17, 2, -61, 7, 45, 44, -9, -57, -8, -60, 29, -50, 25, 58, 18, -48, -15, 9, 66, -37, 27, 91, -23, -51, 77, 37, 28, 36, 29, 6, -3, -7, 18, -38, 17, 34, -32, 23, -9, -58, 86, 11, -61, 18, -80, -24, 3, -29, 51, -44, 30, 5, 41, 59, 67, 11, 45, -63, 19, -56, -40, -48, -4, 12, -17, -32, -25, 24, -26, 12, -8, 0, -53, -64, -4, 70, -37, -29, -62, 33, -65, 16, 52, -53, 51, -40, -22, -69, -30, -38, 33, 40, -53, -9, -39, -40, 68, -24, 64, 43, 13, -19, -57, -59, 16, 14, -73, 
  -28, 0, -16, 81, 18, -42, 75, -37, 26, 74, -13, -32, -17, 56, 24, 33, -43, -28, -77, -61, 52, -57, -40, 19, 50, 64, -20, -27, -31, 37, 3, 68, -42, -60, -44, -80, -14, 57, -46, 34, 73, -44, 71, -68, -62, 29, -15, 61, 85, 11, -69, -32, -82, 41, 55, 77, -4, 26, 67, 23, -37, 4, -66, -19, -73, -5, 57, 39, -76, 74, 68, -65, 80, -11, -62, 51, -41, 55, 5, 84, -64, 37, 19, 8, -40, 34, -13, -51, 33, 27, 72, 43, 42, 22, -35, 79, 50, 5, -57, -82, 58, 31, 23, -8, 21, -41, -42, -11, -47, 12, 38, -19, 15, -64, -40, 3, 47, -79, -54, -69, -21, -40, 45, -4, 60, -70, 29, 77, -35, -29, 57, 20, 53, -53, 3, 28, 69, -29, 18, 83, -29, 44, -59, 84, 14, -31, 47, -2, 72, 74, 50, -2, 83, -69, 86, -42, 5, -52, -60, 31, 85, -32, -67, -13, -21, 79, -73, 11, 73, 65, -60, 49, 39, 30, -65, -65, 38, 86, -73, -46, 13, -24, 34, -52, 40, 63, 45, -74, 11, 61, 25, -66, -13, 17, 53, 24, -76, -58, -31, 9, 21, 36, -68, 72, 55, -65, 73, 20, 3, -38, -45, -76, 54, -49, 36, 40, -52, -40, -2, -6, -57, 37, 63, -37, -65, 16, -17, -41, 27, -32, -49, -36, -59, -40, -61, -29, -22, 29, -53, 24, 21, -2, -80, -1, 13, -44, -38, 52, 85, -57, -81, 43, 82, -78, 73, -43, 11, -32, -50, -3, 26, 79, 3, -4, 15, -23, 65, -53, 81, -51, 82, 76, -15, -71, 68, -1, 39, 80, 42, -37, -35, 85, 34, -64, 6, -82, 64, 18, -39, -26, 60, 49, 72, 10, 68, -15, 55, 
  -17, -46, -37, 24, -16, -15, -9, 8, 76, 44, -31, -10, -58, 83, 1, 22, 46, -44, 51, -78, -67, -75, 51, 77, 80, -74, -63, 86, -16, 22, 59, -21, 28, -75, -4, -79, -58, 43, -36, -15, 69, -43, -20, 39, -45, -75, -19, 53, 61, 32, 30, -43, 13, 24, -66, -36, -76, 24, 36, 22, 70, 63, 77, 73, -85, -5, 79, 57, -39, 59, 52, 63, -64, 65, 65, 41, -76, -30, 29, -57, 80, -66, -97, 9, -45, -13, -32, -48, 33, -73, -33, -78, 24, -8, -8, -28, -23, -17, -50, 38, 21, -57, 11, -91, -44, 12, 49, -86, 35, -39, 79, -14, -34, 49, -48, -54, 50, 48, 39, 64, -71, -28, -16, 26, -70, 50, -77, -61, -55, -37, 18, 49, 90, 38, -66, 70, -38, -64, 5, -33, 22, -59, -67, 64, -59, -77, 13, -57, -94, -53, -48, 4, -17, 13, -11, -79, -39, -44, -17, -59, -42, 48, 7, 1, 69, 60, -5, -53, -14, 48, -84, -50, -22, -11, 60, -74, -82, 50, -62, 75, 35, -32, 54, 82, -37, 16, 79, 61, 47, -12, -60, -69, 20, 53, 81, 5, 2, -69, -53, -9, -20, 74, 58, 67, 86, 85, 4, -21, -33, 19, 56, 18, 9, -45, -52, 40, 31, 16, 68, 0, 29, 65, 67, -89, 73, -43, -20, -31, 20, 6, 68, -10, -73, -17, -44, -75, 27, -3, -32, -16, -22, 33, -4, -31, -93, -32, -11, 44, -79, -41, -17, -45, 46, -31, -41, 27, -22, 45, 22, -21, -11, 56, -19, -33, -2, -65, -37, 36, 49, -46, 9, -58, -65, -11, -67, -81, -2, 0, 26, 47, 23, 12, -61, -66, -77, 35, 8, -76, 6, 39, -12, 17, 32, 27, -4, 97, 36, 
  -78, 64, -58, 59, 16, 64, 35, 56, 44, 62, -62, -24, -17, -77, 66, 22, 70, 82, 28, -61, 36, 59, 43, -35, -66, 69, 4, 63, -83, -18, -58, -2, 85, 54, 82, 85, -81, 6, 50, -23, 9, 66, 57, -15, 38, -19, -66, 9, 34, -87, -29, 17, -35, 53, 60, -15, 23, 75, 61, 39, -69, -27, -24, -74, -30, -40, 0, 32, 50, -30, 1, -79, -29, 30, 11, 14, 52, 81, -78, 16, 41, 61, -26, -52, -44, -42, -26, -7, -18, 2, -9, -68, -38, 21, 24, 23, 80, -63, -24, -31, -73, 3, -26, -76, -78, -19, 35, -28, -13, 21, 46, 55, 12, 2, 44, 59, -12, -49, 40, -29, -7, -14, 82, -34, 54, 61, -58, 52, -3, 3, 76, -15, -50, 62, -27, -40, -48, -2, 33, -35, -16, 10, -14, 73, -32, 54, 54, -4, -24, -56, 75, -78, -69, 69, 72, -62, -60, 6, 42, -27, 57, -81, -24, 8, 1, 19, 14, -1, -3, -59, -81, 64, 43, 40, 3, 82, 41, 21, 80, -38, 27, -84, -41, -28, 54, 3, -51, 26, -53, 59, -12, -16, 50, 35, -3, 4, 53, -53, -33, 17, 68, 42, -15, 3, 14, 42, -82, -21, -14, -53, -82, 28, 43, -37, 79, 77, 61, -79, 50, -32, -40, 43, -69, -9, 37, 68, 1, -76, -52, -72, 21, 71, -3, 79, -69, 77, -26, 39, -66, 10, 11, 45, -8, -53, 54, 48, 28, -81, 19, 24, 6, 41, 57, -35, 13, -4, -19, -55, 59, -3, 16, -46, 72, 82, 33, 19, -56, 77, -36, -67, 74, 57, 77, -22, -45, 33, -22, -15, -23, 33, 76, -15, 9, -52, -71, 21, -22, 78, 77, 58, -72, -37, -63, -61, -38, 23, -24, 
  40, 36, -35, 21, -26, 78, -70, -40, 4, -39, -25, 34, 54, 30, 23, -10, 47, -17, 24, -6, 17, -68, 57, -79, 17, -72, 67, -32, -2, -57, -58, -68, 9, -14, 55, -72, -19, 50, 70, 16, 8, -6, -79, -66, 41, -9, 33, -2, -63, 43, 70, -19, -49, -68, -20, -56, 73, 54, 25, 38, -70, -44, -29, 26, 66, 55, -29, 2, 55, -17, 68, 47, 64, 39, -65, 6, 83, 16, 81, 17, 42, 29, -5, 68, -3, 27, 7, -11, -24, 20, 41, 34, 56, 45, -34, 62, -12, 9, 2, 28, -63, -83, -81, 80, -6, -5, 2, -35, -35, -78, -75, 56, 37, 56, 16, -68, -81, -34, -79, 15, 41, -24, 74, 39, 81, -32, 33, 47, 56, 80, -40, -2, 0, 76, -8, 58, 5, 75, -29, 34, 52, -33, -71, 22, -3, -48, -7, 48, -51, -59, -79, 80, 21, 68, 30, -40, 22, 51, 20, 1, 5, 24, -43, -79, 74, -25, 36, 5, 74, -72, -69, 38, -7, 78, 68, 39, -67, -71, 40, 53, -46, 60, 40, -75, -25, 72, 1, 46, 45, 34, 25, 19, -61, 55, 34, 51, 40, 27, 2, 67, -5, -49, -45, 46, 36, -24, -49, 57, -10, -52, 36, -4, 67, -18, 82, -21, 13, -65, 23, -54, 0, 18, -82, -50, 83, -7, 62, -38, 38, 2, -76, 83, -37, 23, 12, -58, -34, 74, -55, -71, 63, 55, -73, 67, 54, -7, 74, -23, 69, 41, 11, -79, 56, 79, -45, -65, 37, -25, -75, 24, 20, -40, 85, 28, 44, -37, 86, 62, 8, 62, -30, 75, -56, -5, 76, 43, -32, 62, 33, -79, 79, -36, -9, 28, 1, 70, -32, 5, 10, -34, 0, -60, -19, 67, 46, 75, 44, 
  -59, 34, -28, 9, -69, 52, 51, -70, -3, -11, 57, -71, 87, -37, 57, -28, -34, -46, -58, 41, 2, -41, -66, 72, 12, -50, 12, 17, 12, 20, -4, -64, 73, -58, 68, 64, 9, 78, 3, 6, 29, -76, 33, 81, 68, -28, -79, 75, 84, -29, -61, 82, -69, -77, -45, -38, -47, 68, 41, 6, 24, -16, -1, 36, -66, -15, -11, -5, -31, -36, 21, 5, -63, -54, 21, -72, 62, -70, 33, 46, -72, -11, -49, 1, 46, -25, 78, -32, 55, -53, 10, -72, 20, -13, -42, -13, -10, -22, 20, -69, 8, 49, 84, 57, -53, -12, 77, -49, -40, -61, -50, -79, 69, -56, -38, -79, -5, -63, -87, 13, -51, 67, 18, 60, 48, 17, -37, 24, 29, -36, -80, -31, 5, 22, 25, 42, -48, 42, 0, 30, 29, -18, 61, 50, 72, 53, -8, 30, 18, -21, 4, 22, -9, -29, -24, 45, -28, 79, 62, -22, -55, -36, 44, 26, -70, 71, -50, -21, -6, -40, -36, -64, 63, 0, 59, 6, -21, 15, -39, -83, -5, -74, 77, -4, 10, 44, 28, -73, 35, 77, -38, 10, -57, -30, 0, -19, -80, -42, 32, 55, 19, 56, -42, 58, -78, 24, 57, 51, 54, 29, 17, -40, -41, -73, -11, 84, 4, -30, 65, 64, 43, 24, 80, -39, 58, -18, -21, -27, -66, 77, 33, -62, -72, 47, 72, 18, 18, -13, -14, 17, -53, -50, 31, 62, -8, -61, 52, 81, -31, 54, -6, 25, -57, -51, 65, 86, -63, -7, 10, 65, -63, -22, -78, -32, -28, 58, 18, -59, 65, -32, 81, 32, 2, 74, 69, 18, 32, 68, 56, -49, 63, 41, 21, 25, -56, 20, 68, 54, -78, 49, 60, 66, -22, -49, 44, 78, -52, 
  -17, 45, -2, 57, 35, 17, 72, -1, 45, 83, 13, -10, 20, 94, -76, 13, 64, 44, -57, 58, 59, 72, 2, -90, -83, -39, -44, -86, -13, -25, -48, -6, 3, 18, 76, -10, -23, 48, -51, -9, -63, 51, -9, 41, 41, -74, -16, -87, -22, -20, 31, 1, 63, 42, 26, -37, -36, 47, -49, -79, 25, -19, 20, -34, -12, 76, -54, 23, -69, -2, 46, -10, 75, -28, 63, -67, 0, -79, 21, 98, 51, -34, 53, 72, -49, -62, 15, 84, 84, -53, -13, 82, 63, -23, -2, -26, 30, 37, 65, 10, 33, 46, 0, -54, -76, 40, 51, -48, 57, -30, -62, -79, 33, 51, 39, -73, -6, -4, -8, -48, -39, 43, 46, 32, -83, -36, -65, 23, -93, -58, 47, 65, -44, 29, -41, 38, 53, 58, 72, -88, -82, 79, -32, -82, 15, 25, -33, 77, 18, -94, -7, 7, -62, 59, -27, -42, 81, 74, -29, -16, -35, -23, 78, 62, -7, -22, 3, 51, 46, 87, -50, -4, 28, -68, -84, 46, 40, -51, 103, 43, -83, 88, 53, 17, -49, -37, -82, -56, -50, 35, 3, -12, 47, 20, -40, -55, 15, 7, 18, 10, 47, -68, 27, 27, -35, -36, -73, 53, -42, -7, 62, -31, 1, 17, 19, -88, 31, -13, -4, 61, -109, -91, 35, 29, -34, 48, -11, 51, 58, -42, 59, 59, 7, -87, -37, 55, 57, -2, -47, -19, -2, -21, 13, -35, 86, -28, 4, -3, 8, -14, -25, -49, 44, 2, 31, -52, 61, 80, -52, 65, 60, 54, -40, -66, -72, 102, -81, 4, 71, -91, 50, 84, 50, 50, -25, 39, -34, 49, -36, 30, -55, 11, -14, 43, -74, -50, -90, -48, -14, 79, 44, -21, -93, -44, -27, 51, -78, 
